digraph Tree {
node [shape=box, style="filled", color="black"] ;
0 [label="super_dist_missing <= 0.5\ngini = 0.445\nsamples = 18214\nvalue = [12137, 6077]\nclass = Non_Recid", fillcolor="#f2c09c"] ;
1 [label="age_number <= -0.077\ngini = 0.481\nsamples = 11566\nvalue = [6900, 4666]\nclass = Non_Recid", fillcolor="#f7d6bf"] ;
0 -> 1 [labeldistance=2.5, labelangle=45, headlabel="True"] ;
2 [label="super_dist_Interstate Compact <= 0.5\ngini = 0.494\nsamples = 6203\nvalue = [3443, 2760]\nclass = Non_Recid", fillcolor="#fae6d8"] ;
1 -> 2 ;
3 [label="super_dist_ISC <= 0.5\ngini = 0.495\nsamples = 6070\nvalue = [3323, 2747]\nclass = Non_Recid", fillcolor="#fae9dd"] ;
2 -> 3 ;
4 [label="release_type_Released to Special Sentence <= 0.5\ngini = 0.497\nsamples = 5932\nvalue = [3204, 2728]\nclass = Non_Recid", fillcolor="#fbece2"] ;
3 -> 4 ;
5 [label="crime_subtype_Murder/Manslaughter <= 0.5\ngini = 0.496\nsamples = 5761\nvalue = [3151, 2610]\nclass = Non_Recid", fillcolor="#fbe9dd"] ;
4 -> 5 ;
6 [label="crime_class_D Felony <= 0.5\ngini = 0.496\nsamples = 5680\nvalue = [3080, 2600]\nclass = Non_Recid", fillcolor="#fbebe0"] ;
5 -> 6 ;
7 [label="sex_Male <= 0.5\ngini = 0.5\nsamples = 3206\nvalue = [1639, 1567]\nclass = Non_Recid", fillcolor="#fef9f6"] ;
6 -> 7 ;
8 [label="crime_type_Drug <= 0.5\ngini = 0.481\nsamples = 446\nvalue = [267, 179]\nclass = Non_Recid", fillcolor="#f6d5be"] ;
7 -> 8 ;
9 [label="release_type_Parole <= 0.5\ngini = 0.449\nsamples = 223\nvalue = [147, 76]\nclass = Non_Recid", fillcolor="#f2c29f"] ;
8 -> 9 ;
10 [label="super_dist_5JD <= 0.5\ngini = 0.483\nsamples = 108\nvalue = [64, 44]\nclass = Non_Recid", fillcolor="#f7d8c1"] ;
9 -> 10 ;
11 [label="crime_subtype_Burglary <= 0.5\ngini = 0.426\nsamples = 65\nvalue = [45, 20]\nclass = Non_Recid", fillcolor="#f1b991"] ;
10 -> 11 ;
12 [label="super_dist_6JD <= 0.5\ngini = 0.384\nsamples = 54\nvalue = [40, 14]\nclass = Non_Recid", fillcolor="#eead7e"] ;
11 -> 12 ;
13 [label="crime_subtype_Assault <= 0.5\ngini = 0.335\nsamples = 47\nvalue = [37, 10]\nclass = Non_Recid", fillcolor="#eca36f"] ;
12 -> 13 ;
14 [label="target_pop_Yes <= 0.5\ngini = 0.272\nsamples = 37\nvalue = [31, 6]\nclass = Non_Recid", fillcolor="#ea995f"] ;
13 -> 14 ;
15 [label="gini = 0.0\nsamples = 9\nvalue = [9, 0]\nclass = Non_Recid", fillcolor="#e58139"] ;
14 -> 15 ;
16 [label="super_dist_2JD <= 0.5\ngini = 0.337\nsamples = 28\nvalue = [22, 6]\nclass = Non_Recid", fillcolor="#eca36f"] ;
14 -> 16 ;
17 [label="crime_subtype_Theft <= 0.5\ngini = 0.266\nsamples = 19\nvalue = [16, 3]\nclass = Non_Recid", fillcolor="#ea995e"] ;
16 -> 17 ;
18 [label="race_ethnicity_White <= 0.5\ngini = 0.165\nsamples = 11\nvalue = [10, 1]\nclass = Non_Recid", fillcolor="#e88e4d"] ;
17 -> 18 ;
19 [label="gini = 0.32\nsamples = 5\nvalue = [4, 1]\nclass = Non_Recid", fillcolor="#eca06a"] ;
18 -> 19 ;
20 [label="gini = 0.0\nsamples = 6\nvalue = [6, 0]\nclass = Non_Recid", fillcolor="#e58139"] ;
18 -> 20 ;
21 [label="gini = 0.375\nsamples = 8\nvalue = [6, 2]\nclass = Non_Recid", fillcolor="#eeab7b"] ;
17 -> 21 ;
22 [label="gini = 0.444\nsamples = 9\nvalue = [6, 3]\nclass = Non_Recid", fillcolor="#f2c09c"] ;
16 -> 22 ;
23 [label="race_ethnicity_White <= 0.5\ngini = 0.48\nsamples = 10\nvalue = [6, 4]\nclass = Non_Recid", fillcolor="#f6d5bd"] ;
13 -> 23 ;
24 [label="gini = 0.48\nsamples = 5\nvalue = [3, 2]\nclass = Non_Recid", fillcolor="#f6d5bd"] ;
23 -> 24 ;
25 [label="gini = 0.48\nsamples = 5\nvalue = [3, 2]\nclass = Non_Recid", fillcolor="#f6d5bd"] ;
23 -> 25 ;
26 [label="gini = 0.49\nsamples = 7\nvalue = [3, 4]\nclass = Yes_Recid", fillcolor="#cee6f8"] ;
12 -> 26 ;
27 [label="super_dist_1JD <= 0.5\ngini = 0.496\nsamples = 11\nvalue = [5, 6]\nclass = Yes_Recid", fillcolor="#deeffb"] ;
11 -> 27 ;
28 [label="gini = 0.48\nsamples = 5\nvalue = [3, 2]\nclass = Non_Recid", fillcolor="#f6d5bd"] ;
27 -> 28 ;
29 [label="gini = 0.444\nsamples = 6\nvalue = [2, 4]\nclass = Yes_Recid", fillcolor="#9ccef2"] ;
27 -> 29 ;
30 [label="race_ethnicity_White <= 0.5\ngini = 0.493\nsamples = 43\nvalue = [19, 24]\nclass = Yes_Recid", fillcolor="#d6ebfa"] ;
10 -> 30 ;
31 [label="crime_type_Property <= 0.5\ngini = 0.459\nsamples = 14\nvalue = [9, 5]\nclass = Non_Recid", fillcolor="#f3c7a7"] ;
30 -> 31 ;
32 [label="gini = 0.245\nsamples = 7\nvalue = [6, 1]\nclass = Non_Recid", fillcolor="#e9965a"] ;
31 -> 32 ;
33 [label="gini = 0.49\nsamples = 7\nvalue = [3, 4]\nclass = Yes_Recid", fillcolor="#cee6f8"] ;
31 -> 33 ;
34 [label="age_enc <= -0.94\ngini = 0.452\nsamples = 29\nvalue = [10, 19]\nclass = Yes_Recid", fillcolor="#a1d1f3"] ;
30 -> 34 ;
35 [label="gini = 0.0\nsamples = 6\nvalue = [0, 6]\nclass = Yes_Recid", fillcolor="#399de5"] ;
34 -> 35 ;
36 [label="crime_type_Violent <= 0.5\ngini = 0.491\nsamples = 23\nvalue = [10, 13]\nclass = Yes_Recid", fillcolor="#d1e8f9"] ;
34 -> 36 ;
37 [label="crime_type_Property <= 0.5\ngini = 0.5\nsamples = 18\nvalue = [9, 9]\nclass = Non_Recid", fillcolor="#ffffff"] ;
36 -> 37 ;
38 [label="gini = 0.48\nsamples = 5\nvalue = [3, 2]\nclass = Non_Recid", fillcolor="#f6d5bd"] ;
37 -> 38 ;
39 [label="crime_subtype_Burglary <= 0.5\ngini = 0.497\nsamples = 13\nvalue = [6, 7]\nclass = Yes_Recid", fillcolor="#e3f1fb"] ;
37 -> 39 ;
40 [label="gini = 0.469\nsamples = 8\nvalue = [3, 5]\nclass = Yes_Recid", fillcolor="#b0d8f5"] ;
39 -> 40 ;
41 [label="gini = 0.48\nsamples = 5\nvalue = [3, 2]\nclass = Non_Recid", fillcolor="#f6d5bd"] ;
39 -> 41 ;
42 [label="gini = 0.32\nsamples = 5\nvalue = [1, 4]\nclass = Yes_Recid", fillcolor="#6ab6ec"] ;
36 -> 42 ;
43 [label="crime_class_Felony - Enhanced <= 0.5\ngini = 0.402\nsamples = 115\nvalue = [83, 32]\nclass = Non_Recid", fillcolor="#efb285"] ;
9 -> 43 ;
44 [label="super_dist_8JD <= 0.5\ngini = 0.382\nsamples = 109\nvalue = [81, 28]\nclass = Non_Recid", fillcolor="#eead7d"] ;
43 -> 44 ;
45 [label="super_dist_2JD <= 0.5\ngini = 0.36\nsamples = 102\nvalue = [78, 24]\nclass = Non_Recid", fillcolor="#eda876"] ;
44 -> 45 ;
46 [label="crime_type_Property <= 0.5\ngini = 0.328\nsamples = 87\nvalue = [69, 18]\nclass = Non_Recid", fillcolor="#eca26d"] ;
45 -> 46 ;
47 [label="target_pop_No <= 0.5\ngini = 0.258\nsamples = 46\nvalue = [39, 7]\nclass = Non_Recid", fillcolor="#ea985d"] ;
46 -> 47 ;
48 [label="race_ethnicity_Black <= 0.5\ngini = 0.128\nsamples = 29\nvalue = [27, 2]\nclass = Non_Recid", fillcolor="#e78a48"] ;
47 -> 48 ;
49 [label="gini = 0.0\nsamples = 18\nvalue = [18, 0]\nclass = Non_Recid", fillcolor="#e58139"] ;
48 -> 49 ;
50 [label="super_dist_5JD <= 0.5\ngini = 0.298\nsamples = 11\nvalue = [9, 2]\nclass = Non_Recid", fillcolor="#eb9d65"] ;
48 -> 50 ;
51 [label="gini = 0.32\nsamples = 5\nvalue = [4, 1]\nclass = Non_Recid", fillcolor="#eca06a"] ;
50 -> 51 ;
52 [label="gini = 0.278\nsamples = 6\nvalue = [5, 1]\nclass = Non_Recid", fillcolor="#ea9a61"] ;
50 -> 52 ;
53 [label="crime_type_Violent <= 0.5\ngini = 0.415\nsamples = 17\nvalue = [12, 5]\nclass = Non_Recid", fillcolor="#f0b58b"] ;
47 -> 53 ;
54 [label="crime_subtype_Traffic <= 0.5\ngini = 0.375\nsamples = 12\nvalue = [9, 3]\nclass = Non_Recid", fillcolor="#eeab7b"] ;
53 -> 54 ;
55 [label="gini = 0.32\nsamples = 5\nvalue = [4, 1]\nclass = Non_Recid", fillcolor="#eca06a"] ;
54 -> 55 ;
56 [label="gini = 0.408\nsamples = 7\nvalue = [5, 2]\nclass = Non_Recid", fillcolor="#efb388"] ;
54 -> 56 ;
57 [label="gini = 0.48\nsamples = 5\nvalue = [3, 2]\nclass = Non_Recid", fillcolor="#f6d5bd"] ;
53 -> 57 ;
58 [label="race_ethnicity_Black <= 0.5\ngini = 0.393\nsamples = 41\nvalue = [30, 11]\nclass = Non_Recid", fillcolor="#efaf82"] ;
46 -> 58 ;
59 [label="super_dist_5JD <= 0.5\ngini = 0.437\nsamples = 31\nvalue = [21, 10]\nclass = Non_Recid", fillcolor="#f1bd97"] ;
58 -> 59 ;
60 [label="super_dist_7JD <= 0.5\ngini = 0.498\nsamples = 17\nvalue = [9, 8]\nclass = Non_Recid", fillcolor="#fcf1e9"] ;
59 -> 60 ;
61 [label="gini = 0.48\nsamples = 10\nvalue = [6, 4]\nclass = Non_Recid", fillcolor="#f6d5bd"] ;
60 -> 61 ;
62 [label="gini = 0.49\nsamples = 7\nvalue = [3, 4]\nclass = Yes_Recid", fillcolor="#cee6f8"] ;
60 -> 62 ;
63 [label="crime_subtype_Theft <= 0.5\ngini = 0.245\nsamples = 14\nvalue = [12, 2]\nclass = Non_Recid", fillcolor="#e9965a"] ;
59 -> 63 ;
64 [label="gini = 0.408\nsamples = 7\nvalue = [5, 2]\nclass = Non_Recid", fillcolor="#efb388"] ;
63 -> 64 ;
65 [label="gini = 0.0\nsamples = 7\nvalue = [7, 0]\nclass = Non_Recid", fillcolor="#e58139"] ;
63 -> 65 ;
66 [label="gini = 0.18\nsamples = 10\nvalue = [9, 1]\nclass = Non_Recid", fillcolor="#e88f4f"] ;
58 -> 66 ;
67 [label="crime_class_C Felony <= 0.5\ngini = 0.48\nsamples = 15\nvalue = [9, 6]\nclass = Non_Recid", fillcolor="#f6d5bd"] ;
45 -> 67 ;
68 [label="gini = 0.5\nsamples = 10\nvalue = [5, 5]\nclass = Non_Recid", fillcolor="#ffffff"] ;
67 -> 68 ;
69 [label="gini = 0.32\nsamples = 5\nvalue = [4, 1]\nclass = Non_Recid", fillcolor="#eca06a"] ;
67 -> 69 ;
70 [label="gini = 0.49\nsamples = 7\nvalue = [3, 4]\nclass = Yes_Recid", fillcolor="#cee6f8"] ;
44 -> 70 ;
71 [label="gini = 0.444\nsamples = 6\nvalue = [2, 4]\nclass = Yes_Recid", fillcolor="#9ccef2"] ;
43 -> 71 ;
72 [label="release_type_Parole <= 0.5\ngini = 0.497\nsamples = 223\nvalue = [120, 103]\nclass = Non_Recid", fillcolor="#fbede3"] ;
8 -> 72 ;
73 [label="super_dist_3JD <= 0.5\ngini = 0.498\nsamples = 92\nvalue = [43, 49]\nclass = Yes_Recid", fillcolor="#e7f3fc"] ;
72 -> 73 ;
74 [label="super_dist_1JD <= 0.5\ngini = 0.494\nsamples = 83\nvalue = [37, 46]\nclass = Yes_Recid", fillcolor="#d8ecfa"] ;
73 -> 74 ;
75 [label="crime_class_B Felony <= 0.5\ngini = 0.498\nsamples = 70\nvalue = [33, 37]\nclass = Yes_Recid", fillcolor="#eaf4fc"] ;
74 -> 75 ;
76 [label="target_pop_No <= 0.5\ngini = 0.492\nsamples = 62\nvalue = [27, 35]\nclass = Yes_Recid", fillcolor="#d2e9f9"] ;
75 -> 76 ;
77 [label="crime_class_C Felony <= 0.5\ngini = 0.5\nsamples = 40\nvalue = [20, 20]\nclass = Non_Recid", fillcolor="#ffffff"] ;
76 -> 77 ;
78 [label="gini = 0.408\nsamples = 7\nvalue = [2, 5]\nclass = Yes_Recid", fillcolor="#88c4ef"] ;
77 -> 78 ;
79 [label="super_dist_7JD <= 0.5\ngini = 0.496\nsamples = 33\nvalue = [18, 15]\nclass = Non_Recid", fillcolor="#fbeade"] ;
77 -> 79 ;
80 [label="race_ethnicity_White <= 0.5\ngini = 0.483\nsamples = 27\nvalue = [16, 11]\nclass = Non_Recid", fillcolor="#f7d8c1"] ;
79 -> 80 ;
81 [label="gini = 0.5\nsamples = 8\nvalue = [4, 4]\nclass = Non_Recid", fillcolor="#ffffff"] ;
80 -> 81 ;
82 [label="super_dist_2JD <= 0.5\ngini = 0.465\nsamples = 19\nvalue = [12, 7]\nclass = Non_Recid", fillcolor="#f4caac"] ;
80 -> 82 ;
83 [label="gini = 0.459\nsamples = 14\nvalue = [9, 5]\nclass = Non_Recid", fillcolor="#f3c7a7"] ;
82 -> 83 ;
84 [label="gini = 0.48\nsamples = 5\nvalue = [3, 2]\nclass = Non_Recid", fillcolor="#f6d5bd"] ;
82 -> 84 ;
85 [label="gini = 0.444\nsamples = 6\nvalue = [2, 4]\nclass = Yes_Recid", fillcolor="#9ccef2"] ;
79 -> 85 ;
86 [label="super_dist_5JD <= 0.5\ngini = 0.434\nsamples = 22\nvalue = [7, 15]\nclass = Yes_Recid", fillcolor="#95cbf1"] ;
76 -> 86 ;
87 [label="gini = 0.496\nsamples = 11\nvalue = [5, 6]\nclass = Yes_Recid", fillcolor="#deeffb"] ;
86 -> 87 ;
88 [label="gini = 0.298\nsamples = 11\nvalue = [2, 9]\nclass = Yes_Recid", fillcolor="#65b3eb"] ;
86 -> 88 ;
89 [label="gini = 0.375\nsamples = 8\nvalue = [6, 2]\nclass = Non_Recid", fillcolor="#eeab7b"] ;
75 -> 89 ;
90 [label="crime_class_B Felony <= 0.5\ngini = 0.426\nsamples = 13\nvalue = [4, 9]\nclass = Yes_Recid", fillcolor="#91c9f1"] ;
74 -> 90 ;
91 [label="gini = 0.5\nsamples = 8\nvalue = [4, 4]\nclass = Non_Recid", fillcolor="#ffffff"] ;
90 -> 91 ;
92 [label="gini = 0.0\nsamples = 5\nvalue = [0, 5]\nclass = Yes_Recid", fillcolor="#399de5"] ;
90 -> 92 ;
93 [label="gini = 0.444\nsamples = 9\nvalue = [6, 3]\nclass = Non_Recid", fillcolor="#f2c09c"] ;
73 -> 93 ;
94 [label="super_dist_7JD <= 0.5\ngini = 0.485\nsamples = 131\nvalue = [77, 54]\nclass = Non_Recid", fillcolor="#f7d9c4"] ;
72 -> 94 ;
95 [label="age_number <= -0.885\ngini = 0.491\nsamples = 118\nvalue = [67, 51]\nclass = Non_Recid", fillcolor="#f9e1d0"] ;
94 -> 95 ;
96 [label="super_dist_5JD <= 0.5\ngini = 0.496\nsamples = 22\nvalue = [10, 12]\nclass = Yes_Recid", fillcolor="#deeffb"] ;
95 -> 96 ;
97 [label="target_pop_No <= 0.5\ngini = 0.496\nsamples = 11\nvalue = [6, 5]\nclass = Non_Recid", fillcolor="#fbeade"] ;
96 -> 97 ;
98 [label="gini = 0.5\nsamples = 6\nvalue = [3, 3]\nclass = Non_Recid", fillcolor="#ffffff"] ;
97 -> 98 ;
99 [label="gini = 0.48\nsamples = 5\nvalue = [3, 2]\nclass = Non_Recid", fillcolor="#f6d5bd"] ;
97 -> 99 ;
100 [label="gini = 0.463\nsamples = 11\nvalue = [4, 7]\nclass = Yes_Recid", fillcolor="#aad5f4"] ;
96 -> 100 ;
101 [label="target_pop_No <= 0.5\ngini = 0.482\nsamples = 96\nvalue = [57, 39]\nclass = Non_Recid", fillcolor="#f7d7c0"] ;
95 -> 101 ;
102 [label="super_dist_2JD <= 0.5\ngini = 0.467\nsamples = 70\nvalue = [44, 26]\nclass = Non_Recid", fillcolor="#f4cbae"] ;
101 -> 102 ;
103 [label="super_dist_1JD <= 0.5\ngini = 0.455\nsamples = 63\nvalue = [41, 22]\nclass = Non_Recid", fillcolor="#f3c5a3"] ;
102 -> 103 ;
104 [label="super_dist_5JD <= 0.5\ngini = 0.436\nsamples = 53\nvalue = [36, 17]\nclass = Non_Recid", fillcolor="#f1bc96"] ;
103 -> 104 ;
105 [label="super_dist_8JD <= 0.5\ngini = 0.363\nsamples = 21\nvalue = [16, 5]\nclass = Non_Recid", fillcolor="#eda877"] ;
104 -> 105 ;
106 [label="gini = 0.32\nsamples = 10\nvalue = [8, 2]\nclass = Non_Recid", fillcolor="#eca06a"] ;
105 -> 106 ;
107 [label="gini = 0.397\nsamples = 11\nvalue = [8, 3]\nclass = Non_Recid", fillcolor="#efb083"] ;
105 -> 107 ;
108 [label="crime_class_Felony - Enhanced <= 0.5\ngini = 0.469\nsamples = 32\nvalue = [20, 12]\nclass = Non_Recid", fillcolor="#f5cdb0"] ;
104 -> 108 ;
109 [label="gini = 0.444\nsamples = 27\nvalue = [18, 9]\nclass = Non_Recid", fillcolor="#f2c09c"] ;
108 -> 109 ;
110 [label="gini = 0.48\nsamples = 5\nvalue = [2, 3]\nclass = Yes_Recid", fillcolor="#bddef6"] ;
108 -> 110 ;
111 [label="crime_class_B Felony <= 0.5\ngini = 0.5\nsamples = 10\nvalue = [5, 5]\nclass = Non_Recid", fillcolor="#ffffff"] ;
103 -> 111 ;
112 [label="gini = 0.48\nsamples = 5\nvalue = [2, 3]\nclass = Yes_Recid", fillcolor="#bddef6"] ;
111 -> 112 ;
113 [label="gini = 0.48\nsamples = 5\nvalue = [3, 2]\nclass = Non_Recid", fillcolor="#f6d5bd"] ;
111 -> 113 ;
114 [label="gini = 0.49\nsamples = 7\nvalue = [3, 4]\nclass = Yes_Recid", fillcolor="#cee6f8"] ;
102 -> 114 ;
115 [label="super_dist_2JD <= 0.5\ngini = 0.5\nsamples = 26\nvalue = [13, 13]\nclass = Non_Recid", fillcolor="#ffffff"] ;
101 -> 115 ;
116 [label="super_dist_5JD <= 0.5\ngini = 0.499\nsamples = 21\nvalue = [10, 11]\nclass = Yes_Recid", fillcolor="#edf6fd"] ;
115 -> 116 ;
117 [label="gini = 0.48\nsamples = 10\nvalue = [4, 6]\nclass = Yes_Recid", fillcolor="#bddef6"] ;
116 -> 117 ;
118 [label="gini = 0.496\nsamples = 11\nvalue = [6, 5]\nclass = Non_Recid", fillcolor="#fbeade"] ;
116 -> 118 ;
119 [label="gini = 0.48\nsamples = 5\nvalue = [3, 2]\nclass = Non_Recid", fillcolor="#f6d5bd"] ;
115 -> 119 ;
120 [label="race_ethnicity_Black <= 0.5\ngini = 0.355\nsamples = 13\nvalue = [10, 3]\nclass = Non_Recid", fillcolor="#eda774"] ;
94 -> 120 ;
121 [label="gini = 0.219\nsamples = 8\nvalue = [7, 1]\nclass = Non_Recid", fillcolor="#e99355"] ;
120 -> 121 ;
122 [label="gini = 0.48\nsamples = 5\nvalue = [3, 2]\nclass = Non_Recid", fillcolor="#f6d5bd"] ;
120 -> 122 ;
123 [label="release_type_Special Sentence <= 0.5\ngini = 0.5\nsamples = 2760\nvalue = [1372, 1388]\nclass = Yes_Recid", fillcolor="#fdfeff"] ;
7 -> 123 ;
124 [label="crime_type_Violent <= 0.5\ngini = 0.5\nsamples = 2649\nvalue = [1336, 1313]\nclass = Non_Recid", fillcolor="#fffdfc"] ;
123 -> 124 ;
125 [label="crime_class_C Felony <= 0.5\ngini = 0.5\nsamples = 2158\nvalue = [1046, 1112]\nclass = Yes_Recid", fillcolor="#f3f9fd"] ;
124 -> 125 ;
126 [label="super_dist_6JD <= 0.5\ngini = 0.498\nsamples = 851\nvalue = [449, 402]\nclass = Non_Recid", fillcolor="#fcf2ea"] ;
125 -> 126 ;
127 [label="crime_type_Public Order <= 0.5\ngini = 0.499\nsamples = 823\nvalue = [428, 395]\nclass = Non_Recid", fillcolor="#fdf5f0"] ;
126 -> 127 ;
128 [label="super_dist_5JD <= 0.5\ngini = 0.5\nsamples = 696\nvalue = [351, 345]\nclass = Non_Recid", fillcolor="#fffdfc"] ;
127 -> 128 ;
129 [label="release_type_Discharged - Expiration of Sentence <= 0.5\ngini = 0.498\nsamples = 433\nvalue = [229, 204]\nclass = Non_Recid", fillcolor="#fcf1e9"] ;
128 -> 129 ;
130 [label="release_type_Parole <= 0.5\ngini = 0.497\nsamples = 411\nvalue = [221, 190]\nclass = Non_Recid", fillcolor="#fbede3"] ;
129 -> 130 ;
131 [label="crime_class_B Felony <= 0.5\ngini = 0.5\nsamples = 173\nvalue = [87, 86]\nclass = Non_Recid", fillcolor="#fffefd"] ;
130 -> 131 ;
132 [label="race_ethnicity_Black <= 0.5\ngini = 0.495\nsamples = 124\nvalue = [68, 56]\nclass = Non_Recid", fillcolor="#fae9dc"] ;
131 -> 132 ;
133 [label="super_dist_1JD <= 0.5\ngini = 0.481\nsamples = 72\nvalue = [43, 29]\nclass = Non_Recid", fillcolor="#f7d6bf"] ;
132 -> 133 ;
134 [label="crime_subtype_Trafficking <= 0.5\ngini = 0.462\nsamples = 47\nvalue = [30, 17]\nclass = Non_Recid", fillcolor="#f4c8a9"] ;
133 -> 134 ;
135 [label="super_dist_8JD <= 0.5\ngini = 0.494\nsamples = 38\nvalue = [21, 17]\nclass = Non_Recid", fillcolor="#fae7d9"] ;
134 -> 135 ;
136 [label="(...)", fillcolor="#C0C0C0"] ;
135 -> 136 ;
143 [label="(...)", fillcolor="#C0C0C0"] ;
135 -> 143 ;
144 [label="gini = 0.0\nsamples = 9\nvalue = [9, 0]\nclass = Non_Recid", fillcolor="#e58139"] ;
134 -> 144 ;
145 [label="crime_type_Other <= 0.5\ngini = 0.499\nsamples = 25\nvalue = [13, 12]\nclass = Non_Recid", fillcolor="#fdf5f0"] ;
133 -> 145 ;
146 [label="gini = 0.459\nsamples = 14\nvalue = [5, 9]\nclass = Yes_Recid", fillcolor="#a7d3f3"] ;
145 -> 146 ;
147 [label="gini = 0.397\nsamples = 11\nvalue = [8, 3]\nclass = Non_Recid", fillcolor="#efb083"] ;
145 -> 147 ;
148 [label="crime_type_Other <= 0.5\ngini = 0.499\nsamples = 52\nvalue = [25, 27]\nclass = Yes_Recid", fillcolor="#f0f8fd"] ;
132 -> 148 ;
149 [label="super_dist_1JD <= 0.5\ngini = 0.497\nsamples = 41\nvalue = [22, 19]\nclass = Non_Recid", fillcolor="#fbeee4"] ;
148 -> 149 ;
150 [label="gini = 0.486\nsamples = 12\nvalue = [5, 7]\nclass = Yes_Recid", fillcolor="#c6e3f8"] ;
149 -> 150 ;
151 [label="crime_subtype_Trafficking <= 0.5\ngini = 0.485\nsamples = 29\nvalue = [17, 12]\nclass = Non_Recid", fillcolor="#f7dac5"] ;
149 -> 151 ;
152 [label="(...)", fillcolor="#C0C0C0"] ;
151 -> 152 ;
153 [label="(...)", fillcolor="#C0C0C0"] ;
151 -> 153 ;
154 [label="gini = 0.397\nsamples = 11\nvalue = [3, 8]\nclass = Yes_Recid", fillcolor="#83c2ef"] ;
148 -> 154 ;
155 [label="race_ethnicity_Black <= 0.5\ngini = 0.475\nsamples = 49\nvalue = [19, 30]\nclass = Yes_Recid", fillcolor="#b6dbf5"] ;
131 -> 155 ;
156 [label="super_dist_8JD <= 0.5\ngini = 0.433\nsamples = 41\nvalue = [13, 28]\nclass = Yes_Recid", fillcolor="#95caf1"] ;
155 -> 156 ;
157 [label="age_number <= -0.885\ngini = 0.382\nsamples = 35\nvalue = [9, 26]\nclass = Yes_Recid", fillcolor="#7ebfee"] ;
156 -> 157 ;
158 [label="gini = 0.0\nsamples = 5\nvalue = [0, 5]\nclass = Yes_Recid", fillcolor="#399de5"] ;
157 -> 158 ;
159 [label="super_dist_1JD <= 0.5\ngini = 0.42\nsamples = 30\nvalue = [9, 21]\nclass = Yes_Recid", fillcolor="#8ec7f0"] ;
157 -> 159 ;
160 [label="(...)", fillcolor="#C0C0C0"] ;
159 -> 160 ;
163 [label="(...)", fillcolor="#C0C0C0"] ;
159 -> 163 ;
164 [label="gini = 0.444\nsamples = 6\nvalue = [4, 2]\nclass = Non_Recid", fillcolor="#f2c09c"] ;
156 -> 164 ;
165 [label="gini = 0.375\nsamples = 8\nvalue = [6, 2]\nclass = Non_Recid", fillcolor="#eeab7b"] ;
155 -> 165 ;
166 [label="crime_subtype_Trafficking <= 0.5\ngini = 0.492\nsamples = 238\nvalue = [134, 104]\nclass = Non_Recid", fillcolor="#f9e3d3"] ;
130 -> 166 ;
167 [label="super_dist_2JD <= 0.5\ngini = 0.5\nsamples = 93\nvalue = [46, 47]\nclass = Yes_Recid", fillcolor="#fbfdfe"] ;
166 -> 167 ;
168 [label="crime_type_Property <= 0.5\ngini = 0.495\nsamples = 73\nvalue = [33, 40]\nclass = Yes_Recid", fillcolor="#dceefa"] ;
167 -> 168 ;
169 [label="super_dist_1JD <= 0.5\ngini = 0.467\nsamples = 43\nvalue = [16, 27]\nclass = Yes_Recid", fillcolor="#aed7f4"] ;
168 -> 169 ;
170 [label="crime_subtype_Drug Possession <= 0.5\ngini = 0.393\nsamples = 26\nvalue = [7, 19]\nclass = Yes_Recid", fillcolor="#82c1ef"] ;
169 -> 170 ;
171 [label="(...)", fillcolor="#C0C0C0"] ;
170 -> 171 ;
174 [label="(...)", fillcolor="#C0C0C0"] ;
170 -> 174 ;
175 [label="target_pop_No <= 0.5\ngini = 0.498\nsamples = 17\nvalue = [9, 8]\nclass = Non_Recid", fillcolor="#fcf1e9"] ;
169 -> 175 ;
176 [label="(...)", fillcolor="#C0C0C0"] ;
175 -> 176 ;
177 [label="(...)", fillcolor="#C0C0C0"] ;
175 -> 177 ;
178 [label="age_enc <= -0.94\ngini = 0.491\nsamples = 30\nvalue = [17, 13]\nclass = Non_Recid", fillcolor="#f9e1d0"] ;
168 -> 178 ;
179 [label="gini = 0.42\nsamples = 10\nvalue = [3, 7]\nclass = Yes_Recid", fillcolor="#8ec7f0"] ;
178 -> 179 ;
180 [label="super_dist_1JD <= 0.5\ngini = 0.42\nsamples = 20\nvalue = [14, 6]\nclass = Non_Recid", fillcolor="#f0b78e"] ;
178 -> 180 ;
181 [label="(...)", fillcolor="#C0C0C0"] ;
180 -> 181 ;
184 [label="(...)", fillcolor="#C0C0C0"] ;
180 -> 184 ;
185 [label="crime_type_Property <= 0.5\ngini = 0.455\nsamples = 20\nvalue = [13, 7]\nclass = Non_Recid", fillcolor="#f3c5a4"] ;
167 -> 185 ;
186 [label="crime_type_Drug <= 0.5\ngini = 0.165\nsamples = 11\nvalue = [10, 1]\nclass = Non_Recid", fillcolor="#e88e4d"] ;
185 -> 186 ;
187 [label="gini = 0.32\nsamples = 5\nvalue = [4, 1]\nclass = Non_Recid", fillcolor="#eca06a"] ;
186 -> 187 ;
188 [label="gini = 0.0\nsamples = 6\nvalue = [6, 0]\nclass = Non_Recid", fillcolor="#e58139"] ;
186 -> 188 ;
189 [label="gini = 0.444\nsamples = 9\nvalue = [3, 6]\nclass = Yes_Recid", fillcolor="#9ccef2"] ;
185 -> 189 ;
190 [label="age_number <= -0.885\ngini = 0.477\nsamples = 145\nvalue = [88, 57]\nclass = Non_Recid", fillcolor="#f6d3b9"] ;
166 -> 190 ;
191 [label="race_ethnicity_Black <= 0.5\ngini = 0.278\nsamples = 18\nvalue = [15, 3]\nclass = Non_Recid", fillcolor="#ea9a61"] ;
190 -> 191 ;
192 [label="gini = 0.0\nsamples = 10\nvalue = [10, 0]\nclass = Non_Recid", fillcolor="#e58139"] ;
191 -> 192 ;
193 [label="gini = 0.469\nsamples = 8\nvalue = [5, 3]\nclass = Non_Recid", fillcolor="#f5cdb0"] ;
191 -> 193 ;
194 [label="super_dist_2JD <= 0.5\ngini = 0.489\nsamples = 127\nvalue = [73, 54]\nclass = Non_Recid", fillcolor="#f8decb"] ;
190 -> 194 ;
195 [label="race_ethnicity_Black <= 0.5\ngini = 0.479\nsamples = 111\nvalue = [67, 44]\nclass = Non_Recid", fillcolor="#f6d4bb"] ;
194 -> 195 ;
196 [label="super_dist_7JD <= 0.5\ngini = 0.459\nsamples = 73\nvalue = [47, 26]\nclass = Non_Recid", fillcolor="#f3c7a7"] ;
195 -> 196 ;
197 [label="(...)", fillcolor="#C0C0C0"] ;
196 -> 197 ;
210 [label="(...)", fillcolor="#C0C0C0"] ;
196 -> 210 ;
211 [label="target_pop_Yes <= 0.5\ngini = 0.499\nsamples = 38\nvalue = [20, 18]\nclass = Non_Recid", fillcolor="#fcf2eb"] ;
195 -> 211 ;
212 [label="(...)", fillcolor="#C0C0C0"] ;
211 -> 212 ;
213 [label="(...)", fillcolor="#C0C0C0"] ;
211 -> 213 ;
218 [label="gini = 0.469\nsamples = 16\nvalue = [6, 10]\nclass = Yes_Recid", fillcolor="#b0d8f5"] ;
194 -> 218 ;
219 [label="age_enc <= -0.94\ngini = 0.463\nsamples = 22\nvalue = [8, 14]\nclass = Yes_Recid", fillcolor="#aad5f4"] ;
129 -> 219 ;
220 [label="race_ethnicity_White <= 0.5\ngini = 0.355\nsamples = 13\nvalue = [3, 10]\nclass = Yes_Recid", fillcolor="#74baed"] ;
219 -> 220 ;
221 [label="gini = 0.278\nsamples = 6\nvalue = [1, 5]\nclass = Yes_Recid", fillcolor="#61b1ea"] ;
220 -> 221 ;
222 [label="gini = 0.408\nsamples = 7\nvalue = [2, 5]\nclass = Yes_Recid", fillcolor="#88c4ef"] ;
220 -> 222 ;
223 [label="gini = 0.494\nsamples = 9\nvalue = [5, 4]\nclass = Non_Recid", fillcolor="#fae6d7"] ;
219 -> 223 ;
224 [label="crime_subtype_Burglary <= 0.5\ngini = 0.497\nsamples = 263\nvalue = [122, 141]\nclass = Yes_Recid", fillcolor="#e4f2fb"] ;
128 -> 224 ;
225 [label="release_type_Paroled w/Immediate Discharge <= 0.5\ngini = 0.494\nsamples = 239\nvalue = [106, 133]\nclass = Yes_Recid", fillcolor="#d7ebfa"] ;
224 -> 225 ;
226 [label="crime_subtype_Trafficking <= 0.5\ngini = 0.49\nsamples = 231\nvalue = [99, 132]\nclass = Yes_Recid", fillcolor="#cee6f8"] ;
225 -> 226 ;
227 [label="target_pop_No <= 0.5\ngini = 0.458\nsamples = 76\nvalue = [27, 49]\nclass = Yes_Recid", fillcolor="#a6d3f3"] ;
226 -> 227 ;
228 [label="release_type_Parole <= 0.5\ngini = 0.49\nsamples = 49\nvalue = [21, 28]\nclass = Yes_Recid", fillcolor="#cee6f8"] ;
227 -> 228 ;
229 [label="crime_type_Other <= 0.5\ngini = 0.444\nsamples = 30\nvalue = [10, 20]\nclass = Yes_Recid", fillcolor="#9ccef2"] ;
228 -> 229 ;
230 [label="race_ethnicity_Black <= 0.5\ngini = 0.496\nsamples = 22\nvalue = [10, 12]\nclass = Yes_Recid", fillcolor="#deeffb"] ;
229 -> 230 ;
231 [label="(...)", fillcolor="#C0C0C0"] ;
230 -> 231 ;
236 [label="(...)", fillcolor="#C0C0C0"] ;
230 -> 236 ;
237 [label="gini = 0.0\nsamples = 8\nvalue = [0, 8]\nclass = Yes_Recid", fillcolor="#399de5"] ;
229 -> 237 ;
238 [label="crime_type_Property <= 0.5\ngini = 0.488\nsamples = 19\nvalue = [11, 8]\nclass = Non_Recid", fillcolor="#f8ddc9"] ;
228 -> 238 ;
239 [label="gini = 0.278\nsamples = 6\nvalue = [5, 1]\nclass = Non_Recid", fillcolor="#ea9a61"] ;
238 -> 239 ;
240 [label="age_number <= -0.885\ngini = 0.497\nsamples = 13\nvalue = [6, 7]\nclass = Yes_Recid", fillcolor="#e3f1fb"] ;
238 -> 240 ;
241 [label="(...)", fillcolor="#C0C0C0"] ;
240 -> 241 ;
242 [label="(...)", fillcolor="#C0C0C0"] ;
240 -> 242 ;
243 [label="crime_type_Other <= 0.5\ngini = 0.346\nsamples = 27\nvalue = [6, 21]\nclass = Yes_Recid", fillcolor="#72b9ec"] ;
227 -> 243 ;
244 [label="age_number <= -0.885\ngini = 0.308\nsamples = 21\nvalue = [4, 17]\nclass = Yes_Recid", fillcolor="#68b4eb"] ;
243 -> 244 ;
245 [label="gini = 0.408\nsamples = 7\nvalue = [2, 5]\nclass = Yes_Recid", fillcolor="#88c4ef"] ;
244 -> 245 ;
246 [label="crime_type_Drug <= 0.5\ngini = 0.245\nsamples = 14\nvalue = [2, 12]\nclass = Yes_Recid", fillcolor="#5aade9"] ;
244 -> 246 ;
247 [label="(...)", fillcolor="#C0C0C0"] ;
246 -> 247 ;
248 [label="(...)", fillcolor="#C0C0C0"] ;
246 -> 248 ;
249 [label="gini = 0.444\nsamples = 6\nvalue = [2, 4]\nclass = Yes_Recid", fillcolor="#9ccef2"] ;
243 -> 249 ;
250 [label="target_pop_Yes <= 0.5\ngini = 0.497\nsamples = 155\nvalue = [72, 83]\nclass = Yes_Recid", fillcolor="#e5f2fc"] ;
226 -> 250 ;
251 [label="race_ethnicity_White <= 0.5\ngini = 0.453\nsamples = 26\nvalue = [17, 9]\nclass = Non_Recid", fillcolor="#f3c4a2"] ;
250 -> 251 ;
252 [label="gini = 0.18\nsamples = 10\nvalue = [9, 1]\nclass = Non_Recid", fillcolor="#e88f4f"] ;
251 -> 252 ;
253 [label="crime_class_Felony - Enhanced <= 0.5\ngini = 0.5\nsamples = 16\nvalue = [8, 8]\nclass = Non_Recid", fillcolor="#ffffff"] ;
251 -> 253 ;
254 [label="release_type_Parole Granted <= 0.5\ngini = 0.48\nsamples = 10\nvalue = [6, 4]\nclass = Non_Recid", fillcolor="#f6d5bd"] ;
253 -> 254 ;
255 [label="(...)", fillcolor="#C0C0C0"] ;
254 -> 255 ;
256 [label="(...)", fillcolor="#C0C0C0"] ;
254 -> 256 ;
257 [label="gini = 0.444\nsamples = 6\nvalue = [2, 4]\nclass = Yes_Recid", fillcolor="#9ccef2"] ;
253 -> 257 ;
258 [label="release_type_Parole Granted <= 0.5\ngini = 0.489\nsamples = 129\nvalue = [55, 74]\nclass = Yes_Recid", fillcolor="#cce6f8"] ;
250 -> 258 ;
259 [label="race_ethnicity_Black <= 0.5\ngini = 0.476\nsamples = 77\nvalue = [30, 47]\nclass = Yes_Recid", fillcolor="#b7dcf6"] ;
258 -> 259 ;
260 [label="crime_class_Felony - Enhanced <= 0.5\ngini = 0.468\nsamples = 59\nvalue = [22, 37]\nclass = Yes_Recid", fillcolor="#afd7f4"] ;
259 -> 260 ;
261 [label="(...)", fillcolor="#C0C0C0"] ;
260 -> 261 ;
262 [label="(...)", fillcolor="#C0C0C0"] ;
260 -> 262 ;
263 [label="crime_class_B Felony <= 0.5\ngini = 0.494\nsamples = 18\nvalue = [8, 10]\nclass = Yes_Recid", fillcolor="#d7ebfa"] ;
259 -> 263 ;
264 [label="(...)", fillcolor="#C0C0C0"] ;
263 -> 264 ;
265 [label="(...)", fillcolor="#C0C0C0"] ;
263 -> 265 ;
266 [label="crime_class_B Felony <= 0.5\ngini = 0.499\nsamples = 52\nvalue = [25, 27]\nclass = Yes_Recid", fillcolor="#f0f8fd"] ;
258 -> 266 ;
267 [label="race_ethnicity_White <= 0.5\ngini = 0.499\nsamples = 27\nvalue = [14, 13]\nclass = Non_Recid", fillcolor="#fdf6f1"] ;
266 -> 267 ;
268 [label="(...)", fillcolor="#C0C0C0"] ;
267 -> 268 ;
269 [label="(...)", fillcolor="#C0C0C0"] ;
267 -> 269 ;
270 [label="race_ethnicity_Black <= 0.5\ngini = 0.493\nsamples = 25\nvalue = [11, 14]\nclass = Yes_Recid", fillcolor="#d5eaf9"] ;
266 -> 270 ;
271 [label="(...)", fillcolor="#C0C0C0"] ;
270 -> 271 ;
272 [label="(...)", fillcolor="#C0C0C0"] ;
270 -> 272 ;
273 [label="gini = 0.219\nsamples = 8\nvalue = [7, 1]\nclass = Non_Recid", fillcolor="#e99355"] ;
225 -> 273 ;
274 [label="release_type_Parole <= 0.5\ngini = 0.444\nsamples = 24\nvalue = [16, 8]\nclass = Non_Recid", fillcolor="#f2c09c"] ;
224 -> 274 ;
275 [label="gini = 0.469\nsamples = 8\nvalue = [3, 5]\nclass = Yes_Recid", fillcolor="#b0d8f5"] ;
274 -> 275 ;
276 [label="age_enc <= -0.94\ngini = 0.305\nsamples = 16\nvalue = [13, 3]\nclass = Non_Recid", fillcolor="#eb9e67"] ;
274 -> 276 ;
277 [label="gini = 0.298\nsamples = 11\nvalue = [9, 2]\nclass = Non_Recid", fillcolor="#eb9d65"] ;
276 -> 277 ;
278 [label="gini = 0.32\nsamples = 5\nvalue = [4, 1]\nclass = Non_Recid", fillcolor="#eca06a"] ;
276 -> 278 ;
279 [label="super_dist_2JD <= 0.5\ngini = 0.477\nsamples = 127\nvalue = [77, 50]\nclass = Non_Recid", fillcolor="#f6d3ba"] ;
127 -> 279 ;
280 [label="age_enc <= -0.94\ngini = 0.49\nsamples = 114\nvalue = [65, 49]\nclass = Non_Recid", fillcolor="#f9e0ce"] ;
279 -> 280 ;
281 [label="crime_subtype_Alcohol <= 0.5\ngini = 0.438\nsamples = 34\nvalue = [23, 11]\nclass = Non_Recid", fillcolor="#f1bd98"] ;
280 -> 281 ;
282 [label="crime_subtype_Weapons <= 0.5\ngini = 0.366\nsamples = 29\nvalue = [22, 7]\nclass = Non_Recid", fillcolor="#eda978"] ;
281 -> 282 ;
283 [label="race_ethnicity_White <= 0.5\ngini = 0.208\nsamples = 17\nvalue = [15, 2]\nclass = Non_Recid", fillcolor="#e89253"] ;
282 -> 283 ;
284 [label="gini = 0.0\nsamples = 6\nvalue = [6, 0]\nclass = Non_Recid", fillcolor="#e58139"] ;
283 -> 284 ;
285 [label="crime_subtype_Traffic <= 0.5\ngini = 0.298\nsamples = 11\nvalue = [9, 2]\nclass = Non_Recid", fillcolor="#eb9d65"] ;
283 -> 285 ;
286 [label="gini = 0.32\nsamples = 5\nvalue = [4, 1]\nclass = Non_Recid", fillcolor="#eca06a"] ;
285 -> 286 ;
287 [label="gini = 0.278\nsamples = 6\nvalue = [5, 1]\nclass = Non_Recid", fillcolor="#ea9a61"] ;
285 -> 287 ;
288 [label="race_ethnicity_White <= 0.5\ngini = 0.486\nsamples = 12\nvalue = [7, 5]\nclass = Non_Recid", fillcolor="#f8dbc6"] ;
282 -> 288 ;
289 [label="gini = 0.444\nsamples = 6\nvalue = [2, 4]\nclass = Yes_Recid", fillcolor="#9ccef2"] ;
288 -> 289 ;
290 [label="gini = 0.278\nsamples = 6\nvalue = [5, 1]\nclass = Non_Recid", fillcolor="#ea9a61"] ;
288 -> 290 ;
291 [label="gini = 0.32\nsamples = 5\nvalue = [1, 4]\nclass = Yes_Recid", fillcolor="#6ab6ec"] ;
281 -> 291 ;
292 [label="super_dist_5JD <= 0.5\ngini = 0.499\nsamples = 80\nvalue = [42, 38]\nclass = Non_Recid", fillcolor="#fdf3ec"] ;
280 -> 292 ;
293 [label="crime_subtype_OWI <= 0.5\ngini = 0.48\nsamples = 40\nvalue = [24, 16]\nclass = Non_Recid", fillcolor="#f6d5bd"] ;
292 -> 293 ;
294 [label="release_type_Parole <= 0.5\ngini = 0.444\nsamples = 27\nvalue = [18, 9]\nclass = Non_Recid", fillcolor="#f2c09c"] ;
293 -> 294 ;
295 [label="gini = 0.494\nsamples = 9\nvalue = [5, 4]\nclass = Non_Recid", fillcolor="#fae6d7"] ;
294 -> 295 ;
296 [label="crime_subtype_Traffic <= 0.5\ngini = 0.401\nsamples = 18\nvalue = [13, 5]\nclass = Non_Recid", fillcolor="#efb185"] ;
294 -> 296 ;
297 [label="gini = 0.48\nsamples = 10\nvalue = [6, 4]\nclass = Non_Recid", fillcolor="#f6d5bd"] ;
296 -> 297 ;
298 [label="gini = 0.219\nsamples = 8\nvalue = [7, 1]\nclass = Non_Recid", fillcolor="#e99355"] ;
296 -> 298 ;
299 [label="race_ethnicity_White <= 0.5\ngini = 0.497\nsamples = 13\nvalue = [6, 7]\nclass = Yes_Recid", fillcolor="#e3f1fb"] ;
293 -> 299 ;
300 [label="gini = 0.444\nsamples = 6\nvalue = [4, 2]\nclass = Non_Recid", fillcolor="#f2c09c"] ;
299 -> 300 ;
301 [label="gini = 0.408\nsamples = 7\nvalue = [2, 5]\nclass = Yes_Recid", fillcolor="#88c4ef"] ;
299 -> 301 ;
302 [label="target_pop_No <= 0.5\ngini = 0.495\nsamples = 40\nvalue = [18, 22]\nclass = Yes_Recid", fillcolor="#dbedfa"] ;
292 -> 302 ;
303 [label="release_type_Paroled w/Immediate Discharge <= 0.5\ngini = 0.458\nsamples = 31\nvalue = [11, 20]\nclass = Yes_Recid", fillcolor="#a6d3f3"] ;
302 -> 303 ;
304 [label="race_ethnicity_Black <= 0.5\ngini = 0.426\nsamples = 26\nvalue = [8, 18]\nclass = Yes_Recid", fillcolor="#91c9f1"] ;
303 -> 304 ;
305 [label="crime_subtype_Traffic <= 0.5\ngini = 0.488\nsamples = 19\nvalue = [8, 11]\nclass = Yes_Recid", fillcolor="#c9e4f8"] ;
304 -> 305 ;
306 [label="gini = 0.49\nsamples = 7\nvalue = [4, 3]\nclass = Non_Recid", fillcolor="#f8e0ce"] ;
305 -> 306 ;
307 [label="gini = 0.444\nsamples = 12\nvalue = [4, 8]\nclass = Yes_Recid", fillcolor="#9ccef2"] ;
305 -> 307 ;
308 [label="gini = 0.0\nsamples = 7\nvalue = [0, 7]\nclass = Yes_Recid", fillcolor="#399de5"] ;
304 -> 308 ;
309 [label="gini = 0.48\nsamples = 5\nvalue = [3, 2]\nclass = Non_Recid", fillcolor="#f6d5bd"] ;
303 -> 309 ;
310 [label="gini = 0.346\nsamples = 9\nvalue = [7, 2]\nclass = Non_Recid", fillcolor="#eca572"] ;
302 -> 310 ;
311 [label="crime_subtype_Traffic <= 0.5\ngini = 0.142\nsamples = 13\nvalue = [12, 1]\nclass = Non_Recid", fillcolor="#e78c49"] ;
279 -> 311 ;
312 [label="gini = 0.0\nsamples = 8\nvalue = [8, 0]\nclass = Non_Recid", fillcolor="#e58139"] ;
311 -> 312 ;
313 [label="gini = 0.32\nsamples = 5\nvalue = [4, 1]\nclass = Non_Recid", fillcolor="#eca06a"] ;
311 -> 313 ;
314 [label="crime_subtype_Other Criminal <= 0.5\ngini = 0.375\nsamples = 28\nvalue = [21, 7]\nclass = Non_Recid", fillcolor="#eeab7b"] ;
126 -> 314 ;
315 [label="crime_class_B Felony <= 0.5\ngini = 0.236\nsamples = 22\nvalue = [19, 3]\nclass = Non_Recid", fillcolor="#e99558"] ;
314 -> 315 ;
316 [label="gini = 0.0\nsamples = 13\nvalue = [13, 0]\nclass = Non_Recid", fillcolor="#e58139"] ;
315 -> 316 ;
317 [label="gini = 0.444\nsamples = 9\nvalue = [6, 3]\nclass = Non_Recid", fillcolor="#f2c09c"] ;
315 -> 317 ;
318 [label="gini = 0.444\nsamples = 6\nvalue = [2, 4]\nclass = Yes_Recid", fillcolor="#9ccef2"] ;
314 -> 318 ;
319 [label="race_ethnicity_White <= 0.5\ngini = 0.496\nsamples = 1307\nvalue = [597, 710]\nclass = Yes_Recid", fillcolor="#dfeffb"] ;
125 -> 319 ;
320 [label="race_ethnicity_American Native <= 0.5\ngini = 0.5\nsamples = 508\nvalue = [256, 252]\nclass = Non_Recid", fillcolor="#fffdfc"] ;
319 -> 320 ;
321 [label="super_dist_4JD <= 0.5\ngini = 0.5\nsamples = 488\nvalue = [251, 237]\nclass = Non_Recid", fillcolor="#fef8f4"] ;
320 -> 321 ;
322 [label="age_number <= -0.885\ngini = 0.499\nsamples = 480\nvalue = [250, 230]\nclass = Non_Recid", fillcolor="#fdf5ef"] ;
321 -> 322 ;
323 [label="crime_type_Drug <= 0.5\ngini = 0.498\nsamples = 174\nvalue = [81, 93]\nclass = Yes_Recid", fillcolor="#e5f2fc"] ;
322 -> 323 ;
324 [label="super_dist_2JD <= 0.5\ngini = 0.494\nsamples = 81\nvalue = [45, 36]\nclass = Non_Recid", fillcolor="#fae6d7"] ;
323 -> 324 ;
325 [label="super_dist_5JD <= 0.5\ngini = 0.488\nsamples = 76\nvalue = [44, 32]\nclass = Non_Recid", fillcolor="#f8ddc9"] ;
324 -> 325 ;
326 [label="release_type_Parole <= 0.5\ngini = 0.47\nsamples = 53\nvalue = [33, 20]\nclass = Non_Recid", fillcolor="#f5cdb1"] ;
325 -> 326 ;
327 [label="super_dist_6JD <= 0.5\ngini = 0.435\nsamples = 25\nvalue = [17, 8]\nclass = Non_Recid", fillcolor="#f1bc96"] ;
326 -> 327 ;
328 [label="super_dist_1JD <= 0.5\ngini = 0.48\nsamples = 20\nvalue = [12, 8]\nclass = Non_Recid", fillcolor="#f6d5bd"] ;
327 -> 328 ;
329 [label="(...)", fillcolor="#C0C0C0"] ;
328 -> 329 ;
332 [label="(...)", fillcolor="#C0C0C0"] ;
328 -> 332 ;
333 [label="gini = 0.0\nsamples = 5\nvalue = [5, 0]\nclass = Non_Recid", fillcolor="#e58139"] ;
327 -> 333 ;
334 [label="super_dist_8JD <= 0.5\ngini = 0.49\nsamples = 28\nvalue = [16, 12]\nclass = Non_Recid", fillcolor="#f8e0ce"] ;
326 -> 334 ;
335 [label="super_dist_7JD <= 0.5\ngini = 0.499\nsamples = 23\nvalue = [12, 11]\nclass = Non_Recid", fillcolor="#fdf5ef"] ;
334 -> 335 ;
336 [label="(...)", fillcolor="#C0C0C0"] ;
335 -> 336 ;
339 [label="(...)", fillcolor="#C0C0C0"] ;
335 -> 339 ;
342 [label="gini = 0.32\nsamples = 5\nvalue = [4, 1]\nclass = Non_Recid", fillcolor="#eca06a"] ;
334 -> 342 ;
343 [label="crime_subtype_Theft <= 0.5\ngini = 0.499\nsamples = 23\nvalue = [11, 12]\nclass = Yes_Recid", fillcolor="#eff7fd"] ;
325 -> 343 ;
344 [label="release_type_Parole <= 0.5\ngini = 0.426\nsamples = 13\nvalue = [9, 4]\nclass = Non_Recid", fillcolor="#f1b991"] ;
343 -> 344 ;
345 [label="gini = 0.49\nsamples = 7\nvalue = [4, 3]\nclass = Non_Recid", fillcolor="#f8e0ce"] ;
344 -> 345 ;
346 [label="gini = 0.278\nsamples = 6\nvalue = [5, 1]\nclass = Non_Recid", fillcolor="#ea9a61"] ;
344 -> 346 ;
347 [label="gini = 0.32\nsamples = 10\nvalue = [2, 8]\nclass = Yes_Recid", fillcolor="#6ab6ec"] ;
343 -> 347 ;
348 [label="gini = 0.32\nsamples = 5\nvalue = [1, 4]\nclass = Yes_Recid", fillcolor="#6ab6ec"] ;
324 -> 348 ;
349 [label="super_dist_3JD <= 0.5\ngini = 0.475\nsamples = 93\nvalue = [36, 57]\nclass = Yes_Recid", fillcolor="#b6dbf5"] ;
323 -> 349 ;
350 [label="release_type_Parole <= 0.5\ngini = 0.483\nsamples = 88\nvalue = [36, 52]\nclass = Yes_Recid", fillcolor="#c2e1f7"] ;
349 -> 350 ;
351 [label="super_dist_5JD <= 0.5\ngini = 0.403\nsamples = 25\nvalue = [7, 18]\nclass = Yes_Recid", fillcolor="#86c3ef"] ;
350 -> 351 ;
352 [label="super_dist_7JD <= 0.5\ngini = 0.26\nsamples = 13\nvalue = [2, 11]\nclass = Yes_Recid", fillcolor="#5dafea"] ;
351 -> 352 ;
353 [label="gini = 0.0\nsamples = 5\nvalue = [0, 5]\nclass = Yes_Recid", fillcolor="#399de5"] ;
352 -> 353 ;
354 [label="gini = 0.375\nsamples = 8\nvalue = [2, 6]\nclass = Yes_Recid", fillcolor="#7bbeee"] ;
352 -> 354 ;
355 [label="gini = 0.486\nsamples = 12\nvalue = [5, 7]\nclass = Yes_Recid", fillcolor="#c6e3f8"] ;
351 -> 355 ;
356 [label="super_dist_2JD <= 0.5\ngini = 0.497\nsamples = 63\nvalue = [29, 34]\nclass = Yes_Recid", fillcolor="#e2f1fb"] ;
350 -> 356 ;
357 [label="target_pop_No <= 0.5\ngini = 0.5\nsamples = 57\nvalue = [28, 29]\nclass = Yes_Recid", fillcolor="#f8fcfe"] ;
356 -> 357 ;
358 [label="super_dist_1JD <= 0.5\ngini = 0.499\nsamples = 48\nvalue = [25, 23]\nclass = Non_Recid", fillcolor="#fdf5ef"] ;
357 -> 358 ;
359 [label="(...)", fillcolor="#C0C0C0"] ;
358 -> 359 ;
362 [label="(...)", fillcolor="#C0C0C0"] ;
358 -> 362 ;
363 [label="gini = 0.444\nsamples = 9\nvalue = [3, 6]\nclass = Yes_Recid", fillcolor="#9ccef2"] ;
357 -> 363 ;
364 [label="gini = 0.278\nsamples = 6\nvalue = [1, 5]\nclass = Yes_Recid", fillcolor="#61b1ea"] ;
356 -> 364 ;
365 [label="gini = 0.0\nsamples = 5\nvalue = [0, 5]\nclass = Yes_Recid", fillcolor="#399de5"] ;
349 -> 365 ;
366 [label="race_ethnicity_Hispanic <= 0.5\ngini = 0.495\nsamples = 306\nvalue = [169, 137]\nclass = Non_Recid", fillcolor="#fae7da"] ;
322 -> 366 ;
367 [label="crime_subtype_Trafficking <= 0.5\ngini = 0.499\nsamples = 276\nvalue = [145, 131]\nclass = Non_Recid", fillcolor="#fcf3ec"] ;
366 -> 367 ;
368 [label="super_dist_5JD <= 0.5\ngini = 0.486\nsamples = 79\nvalue = [33, 46]\nclass = Yes_Recid", fillcolor="#c7e3f8"] ;
367 -> 368 ;
369 [label="super_dist_2JD <= 0.5\ngini = 0.467\nsamples = 62\nvalue = [23, 39]\nclass = Yes_Recid", fillcolor="#aed7f4"] ;
368 -> 369 ;
370 [label="super_dist_1JD <= 0.5\ngini = 0.474\nsamples = 57\nvalue = [22, 35]\nclass = Yes_Recid", fillcolor="#b5dbf5"] ;
369 -> 370 ;
371 [label="super_dist_7JD <= 0.5\ngini = 0.494\nsamples = 27\nvalue = [12, 15]\nclass = Yes_Recid", fillcolor="#d7ebfa"] ;
370 -> 371 ;
372 [label="(...)", fillcolor="#C0C0C0"] ;
371 -> 372 ;
377 [label="(...)", fillcolor="#C0C0C0"] ;
371 -> 377 ;
380 [label="crime_subtype_Burglary <= 0.5\ngini = 0.444\nsamples = 30\nvalue = [10, 20]\nclass = Yes_Recid", fillcolor="#9ccef2"] ;
370 -> 380 ;
381 [label="(...)", fillcolor="#C0C0C0"] ;
380 -> 381 ;
382 [label="(...)", fillcolor="#C0C0C0"] ;
380 -> 382 ;
385 [label="gini = 0.32\nsamples = 5\nvalue = [1, 4]\nclass = Yes_Recid", fillcolor="#6ab6ec"] ;
369 -> 385 ;
386 [label="crime_subtype_Burglary <= 0.5\ngini = 0.484\nsamples = 17\nvalue = [10, 7]\nclass = Non_Recid", fillcolor="#f7d9c4"] ;
368 -> 386 ;
387 [label="gini = 0.49\nsamples = 7\nvalue = [4, 3]\nclass = Non_Recid", fillcolor="#f8e0ce"] ;
386 -> 387 ;
388 [label="gini = 0.48\nsamples = 10\nvalue = [6, 4]\nclass = Non_Recid", fillcolor="#f6d5bd"] ;
386 -> 388 ;
389 [label="race_ethnicity_Asian or Pacific Islander <= 0.5\ngini = 0.491\nsamples = 197\nvalue = [112, 85]\nclass = Non_Recid", fillcolor="#f9e1cf"] ;
367 -> 389 ;
390 [label="super_dist_1JD <= 0.5\ngini = 0.488\nsamples = 192\nvalue = [111, 81]\nclass = Non_Recid", fillcolor="#f8ddc9"] ;
389 -> 390 ;
391 [label="release_type_Parole Granted <= 0.5\ngini = 0.478\nsamples = 144\nvalue = [87, 57]\nclass = Non_Recid", fillcolor="#f6d4bb"] ;
390 -> 391 ;
392 [label="super_dist_8JD <= 0.5\ngini = 0.464\nsamples = 104\nvalue = [66, 38]\nclass = Non_Recid", fillcolor="#f4caab"] ;
391 -> 392 ;
393 [label="(...)", fillcolor="#C0C0C0"] ;
392 -> 393 ;
404 [label="(...)", fillcolor="#C0C0C0"] ;
392 -> 404 ;
405 [label="super_dist_7JD <= 0.5\ngini = 0.499\nsamples = 40\nvalue = [21, 19]\nclass = Non_Recid", fillcolor="#fdf3ec"] ;
391 -> 405 ;
406 [label="(...)", fillcolor="#C0C0C0"] ;
405 -> 406 ;
411 [label="(...)", fillcolor="#C0C0C0"] ;
405 -> 411 ;
412 [label="release_type_Parole <= 0.5\ngini = 0.5\nsamples = 48\nvalue = [24, 24]\nclass = Non_Recid", fillcolor="#ffffff"] ;
390 -> 412 ;
413 [label="gini = 0.408\nsamples = 14\nvalue = [10, 4]\nclass = Non_Recid", fillcolor="#efb388"] ;
412 -> 413 ;
414 [label="target_pop_No <= 0.5\ngini = 0.484\nsamples = 34\nvalue = [14, 20]\nclass = Yes_Recid", fillcolor="#c4e2f7"] ;
412 -> 414 ;
415 [label="(...)", fillcolor="#C0C0C0"] ;
414 -> 415 ;
416 [label="(...)", fillcolor="#C0C0C0"] ;
414 -> 416 ;
417 [label="gini = 0.32\nsamples = 5\nvalue = [1, 4]\nclass = Yes_Recid", fillcolor="#6ab6ec"] ;
389 -> 417 ;
418 [label="super_dist_2JD <= 0.5\ngini = 0.32\nsamples = 30\nvalue = [24, 6]\nclass = Non_Recid", fillcolor="#eca06a"] ;
366 -> 418 ;
419 [label="super_dist_3JD <= 0.5\ngini = 0.236\nsamples = 22\nvalue = [19, 3]\nclass = Non_Recid", fillcolor="#e99558"] ;
418 -> 419 ;
420 [label="release_type_Parole Granted <= 0.5\ngini = 0.124\nsamples = 15\nvalue = [14, 1]\nclass = Non_Recid", fillcolor="#e78a47"] ;
419 -> 420 ;
421 [label="gini = 0.0\nsamples = 10\nvalue = [10, 0]\nclass = Non_Recid", fillcolor="#e58139"] ;
420 -> 421 ;
422 [label="gini = 0.32\nsamples = 5\nvalue = [4, 1]\nclass = Non_Recid", fillcolor="#eca06a"] ;
420 -> 422 ;
423 [label="gini = 0.408\nsamples = 7\nvalue = [5, 2]\nclass = Non_Recid", fillcolor="#efb388"] ;
419 -> 423 ;
424 [label="gini = 0.469\nsamples = 8\nvalue = [5, 3]\nclass = Non_Recid", fillcolor="#f5cdb0"] ;
418 -> 424 ;
425 [label="gini = 0.219\nsamples = 8\nvalue = [1, 7]\nclass = Yes_Recid", fillcolor="#55abe9"] ;
321 -> 425 ;
426 [label="crime_type_Property <= 0.5\ngini = 0.375\nsamples = 20\nvalue = [5, 15]\nclass = Yes_Recid", fillcolor="#7bbeee"] ;
320 -> 426 ;
427 [label="gini = 0.0\nsamples = 6\nvalue = [0, 6]\nclass = Yes_Recid", fillcolor="#399de5"] ;
426 -> 427 ;
428 [label="super_dist_3JD <= 0.5\ngini = 0.459\nsamples = 14\nvalue = [5, 9]\nclass = Yes_Recid", fillcolor="#a7d3f3"] ;
426 -> 428 ;
429 [label="gini = 0.32\nsamples = 5\nvalue = [1, 4]\nclass = Yes_Recid", fillcolor="#6ab6ec"] ;
428 -> 429 ;
430 [label="gini = 0.494\nsamples = 9\nvalue = [4, 5]\nclass = Yes_Recid", fillcolor="#d7ebfa"] ;
428 -> 430 ;
431 [label="crime_subtype_Trafficking <= 0.5\ngini = 0.489\nsamples = 799\nvalue = [341, 458]\nclass = Yes_Recid", fillcolor="#cce6f8"] ;
319 -> 431 ;
432 [label="super_dist_7JD <= 0.5\ngini = 0.5\nsamples = 301\nvalue = [151, 150]\nclass = Non_Recid", fillcolor="#fffefe"] ;
431 -> 432 ;
433 [label="crime_subtype_Theft <= 0.5\ngini = 0.499\nsamples = 275\nvalue = [131, 144]\nclass = Yes_Recid", fillcolor="#edf6fd"] ;
432 -> 433 ;
434 [label="crime_subtype_Burglary <= 0.5\ngini = 0.497\nsamples = 181\nvalue = [97, 84]\nclass = Non_Recid", fillcolor="#fceee4"] ;
433 -> 434 ;
435 [label="super_dist_1JD <= 0.5\ngini = 0.417\nsamples = 54\nvalue = [38, 16]\nclass = Non_Recid", fillcolor="#f0b68c"] ;
434 -> 435 ;
436 [label="crime_type_Property <= 0.5\ngini = 0.381\nsamples = 43\nvalue = [32, 11]\nclass = Non_Recid", fillcolor="#eeac7d"] ;
435 -> 436 ;
437 [label="release_type_Parole <= 0.5\ngini = 0.444\nsamples = 15\nvalue = [10, 5]\nclass = Non_Recid", fillcolor="#f2c09c"] ;
436 -> 437 ;
438 [label="gini = 0.49\nsamples = 7\nvalue = [4, 3]\nclass = Non_Recid", fillcolor="#f8e0ce"] ;
437 -> 438 ;
439 [label="gini = 0.375\nsamples = 8\nvalue = [6, 2]\nclass = Non_Recid", fillcolor="#eeab7b"] ;
437 -> 439 ;
440 [label="age_enc <= -0.94\ngini = 0.337\nsamples = 28\nvalue = [22, 6]\nclass = Non_Recid", fillcolor="#eca36f"] ;
436 -> 440 ;
441 [label="gini = 0.18\nsamples = 10\nvalue = [9, 1]\nclass = Non_Recid", fillcolor="#e88f4f"] ;
440 -> 441 ;
442 [label="crime_subtype_Arson <= 0.5\ngini = 0.401\nsamples = 18\nvalue = [13, 5]\nclass = Non_Recid", fillcolor="#efb185"] ;
440 -> 442 ;
443 [label="gini = 0.0\nsamples = 6\nvalue = [6, 0]\nclass = Non_Recid", fillcolor="#e58139"] ;
442 -> 443 ;
444 [label="release_type_Parole Granted <= 0.5\ngini = 0.486\nsamples = 12\nvalue = [7, 5]\nclass = Non_Recid", fillcolor="#f8dbc6"] ;
442 -> 444 ;
445 [label="(...)", fillcolor="#C0C0C0"] ;
444 -> 445 ;
446 [label="(...)", fillcolor="#C0C0C0"] ;
444 -> 446 ;
447 [label="crime_type_Drug <= 0.5\ngini = 0.496\nsamples = 11\nvalue = [6, 5]\nclass = Non_Recid", fillcolor="#fbeade"] ;
435 -> 447 ;
448 [label="gini = 0.444\nsamples = 6\nvalue = [2, 4]\nclass = Yes_Recid", fillcolor="#9ccef2"] ;
447 -> 448 ;
449 [label="gini = 0.32\nsamples = 5\nvalue = [4, 1]\nclass = Non_Recid", fillcolor="#eca06a"] ;
447 -> 449 ;
450 [label="release_type_Parole Granted <= 0.5\ngini = 0.497\nsamples = 127\nvalue = [59, 68]\nclass = Yes_Recid", fillcolor="#e5f2fc"] ;
434 -> 450 ;
451 [label="super_dist_2JD <= 0.5\ngini = 0.494\nsamples = 72\nvalue = [40, 32]\nclass = Non_Recid", fillcolor="#fae6d7"] ;
450 -> 451 ;
452 [label="age_enc <= -0.94\ngini = 0.478\nsamples = 66\nvalue = [40, 26]\nclass = Non_Recid", fillcolor="#f6d3ba"] ;
451 -> 452 ;
453 [label="super_dist_5JD <= 0.5\ngini = 0.5\nsamples = 32\nvalue = [16, 16]\nclass = Non_Recid", fillcolor="#ffffff"] ;
452 -> 453 ;
454 [label="super_dist_1JD <= 0.5\ngini = 0.499\nsamples = 25\nvalue = [12, 13]\nclass = Yes_Recid", fillcolor="#f0f7fd"] ;
453 -> 454 ;
455 [label="(...)", fillcolor="#C0C0C0"] ;
454 -> 455 ;
458 [label="(...)", fillcolor="#C0C0C0"] ;
454 -> 458 ;
459 [label="gini = 0.49\nsamples = 7\nvalue = [4, 3]\nclass = Non_Recid", fillcolor="#f8e0ce"] ;
453 -> 459 ;
460 [label="super_dist_1JD <= 0.5\ngini = 0.415\nsamples = 34\nvalue = [24, 10]\nclass = Non_Recid", fillcolor="#f0b58b"] ;
452 -> 460 ;
461 [label="target_pop_No <= 0.5\ngini = 0.384\nsamples = 27\nvalue = [20, 7]\nclass = Non_Recid", fillcolor="#eead7e"] ;
460 -> 461 ;
462 [label="(...)", fillcolor="#C0C0C0"] ;
461 -> 462 ;
467 [label="(...)", fillcolor="#C0C0C0"] ;
461 -> 467 ;
468 [label="gini = 0.49\nsamples = 7\nvalue = [4, 3]\nclass = Non_Recid", fillcolor="#f8e0ce"] ;
460 -> 468 ;
469 [label="gini = 0.0\nsamples = 6\nvalue = [0, 6]\nclass = Yes_Recid", fillcolor="#399de5"] ;
451 -> 469 ;
470 [label="super_dist_5JD <= 0.5\ngini = 0.452\nsamples = 55\nvalue = [19, 36]\nclass = Yes_Recid", fillcolor="#a2d1f3"] ;
450 -> 470 ;
471 [label="super_dist_1JD <= 0.5\ngini = 0.497\nsamples = 39\nvalue = [18, 21]\nclass = Yes_Recid", fillcolor="#e3f1fb"] ;
470 -> 471 ;
472 [label="age_enc <= -0.94\ngini = 0.499\nsamples = 25\nvalue = [13, 12]\nclass = Non_Recid", fillcolor="#fdf5f0"] ;
471 -> 472 ;
473 [label="gini = 0.48\nsamples = 10\nvalue = [4, 6]\nclass = Yes_Recid", fillcolor="#bddef6"] ;
472 -> 473 ;
474 [label="gini = 0.48\nsamples = 15\nvalue = [9, 6]\nclass = Non_Recid", fillcolor="#f6d5bd"] ;
472 -> 474 ;
475 [label="age_number <= -0.885\ngini = 0.459\nsamples = 14\nvalue = [5, 9]\nclass = Yes_Recid", fillcolor="#a7d3f3"] ;
471 -> 475 ;
476 [label="gini = 0.444\nsamples = 6\nvalue = [2, 4]\nclass = Yes_Recid", fillcolor="#9ccef2"] ;
475 -> 476 ;
477 [label="gini = 0.469\nsamples = 8\nvalue = [3, 5]\nclass = Yes_Recid", fillcolor="#b0d8f5"] ;
475 -> 477 ;
478 [label="age_enc <= -0.94\ngini = 0.117\nsamples = 16\nvalue = [1, 15]\nclass = Yes_Recid", fillcolor="#46a4e7"] ;
470 -> 478 ;
479 [label="gini = 0.0\nsamples = 7\nvalue = [0, 7]\nclass = Yes_Recid", fillcolor="#399de5"] ;
478 -> 479 ;
480 [label="gini = 0.198\nsamples = 9\nvalue = [1, 8]\nclass = Yes_Recid", fillcolor="#52a9e8"] ;
478 -> 480 ;
481 [label="super_dist_1JD <= 0.5\ngini = 0.462\nsamples = 94\nvalue = [34, 60]\nclass = Yes_Recid", fillcolor="#a9d5f4"] ;
433 -> 481 ;
482 [label="release_type_Parole <= 0.5\ngini = 0.482\nsamples = 74\nvalue = [30, 44]\nclass = Yes_Recid", fillcolor="#c0e0f7"] ;
481 -> 482 ;
483 [label="super_dist_4JD <= 0.5\ngini = 0.5\nsamples = 30\nvalue = [15, 15]\nclass = Non_Recid", fillcolor="#ffffff"] ;
482 -> 483 ;
484 [label="super_dist_5JD <= 0.5\ngini = 0.496\nsamples = 22\nvalue = [12, 10]\nclass = Non_Recid", fillcolor="#fbeade"] ;
483 -> 484 ;
485 [label="super_dist_2JD <= 0.5\ngini = 0.5\nsamples = 12\nvalue = [6, 6]\nclass = Non_Recid", fillcolor="#ffffff"] ;
484 -> 485 ;
486 [label="gini = 0.48\nsamples = 5\nvalue = [2, 3]\nclass = Yes_Recid", fillcolor="#bddef6"] ;
485 -> 486 ;
487 [label="gini = 0.49\nsamples = 7\nvalue = [4, 3]\nclass = Non_Recid", fillcolor="#f8e0ce"] ;
485 -> 487 ;
488 [label="age_enc <= -0.94\ngini = 0.48\nsamples = 10\nvalue = [6, 4]\nclass = Non_Recid", fillcolor="#f6d5bd"] ;
484 -> 488 ;
489 [label="gini = 0.48\nsamples = 5\nvalue = [2, 3]\nclass = Yes_Recid", fillcolor="#bddef6"] ;
488 -> 489 ;
490 [label="gini = 0.32\nsamples = 5\nvalue = [4, 1]\nclass = Non_Recid", fillcolor="#eca06a"] ;
488 -> 490 ;
491 [label="gini = 0.469\nsamples = 8\nvalue = [3, 5]\nclass = Yes_Recid", fillcolor="#b0d8f5"] ;
483 -> 491 ;
492 [label="age_enc <= -0.94\ngini = 0.449\nsamples = 44\nvalue = [15, 29]\nclass = Yes_Recid", fillcolor="#9fd0f2"] ;
482 -> 492 ;
493 [label="super_dist_5JD <= 0.5\ngini = 0.5\nsamples = 16\nvalue = [8, 8]\nclass = Non_Recid", fillcolor="#ffffff"] ;
492 -> 493 ;
494 [label="gini = 0.494\nsamples = 9\nvalue = [4, 5]\nclass = Yes_Recid", fillcolor="#d7ebfa"] ;
493 -> 494 ;
495 [label="gini = 0.49\nsamples = 7\nvalue = [4, 3]\nclass = Non_Recid", fillcolor="#f8e0ce"] ;
493 -> 495 ;
496 [label="target_pop_Yes <= 0.5\ngini = 0.375\nsamples = 28\nvalue = [7, 21]\nclass = Yes_Recid", fillcolor="#7bbeee"] ;
492 -> 496 ;
497 [label="gini = 0.469\nsamples = 8\nvalue = [3, 5]\nclass = Yes_Recid", fillcolor="#b0d8f5"] ;
496 -> 497 ;
498 [label="super_dist_5JD <= 0.5\ngini = 0.32\nsamples = 20\nvalue = [4, 16]\nclass = Yes_Recid", fillcolor="#6ab6ec"] ;
496 -> 498 ;
499 [label="gini = 0.346\nsamples = 9\nvalue = [2, 7]\nclass = Yes_Recid", fillcolor="#72b9ec"] ;
498 -> 499 ;
500 [label="gini = 0.298\nsamples = 11\nvalue = [2, 9]\nclass = Yes_Recid", fillcolor="#65b3eb"] ;
498 -> 500 ;
501 [label="age_number <= -0.885\ngini = 0.32\nsamples = 20\nvalue = [4, 16]\nclass = Yes_Recid", fillcolor="#6ab6ec"] ;
481 -> 501 ;
502 [label="gini = 0.219\nsamples = 8\nvalue = [1, 7]\nclass = Yes_Recid", fillcolor="#55abe9"] ;
501 -> 502 ;
503 [label="gini = 0.375\nsamples = 12\nvalue = [3, 9]\nclass = Yes_Recid", fillcolor="#7bbeee"] ;
501 -> 503 ;
504 [label="age_number <= -0.885\ngini = 0.355\nsamples = 26\nvalue = [20, 6]\nclass = Non_Recid", fillcolor="#eda774"] ;
432 -> 504 ;
505 [label="release_type_Parole Granted <= 0.5\ngini = 0.245\nsamples = 14\nvalue = [12, 2]\nclass = Non_Recid", fillcolor="#e9965a"] ;
504 -> 505 ;
506 [label="gini = 0.0\nsamples = 7\nvalue = [7, 0]\nclass = Non_Recid", fillcolor="#e58139"] ;
505 -> 506 ;
507 [label="gini = 0.408\nsamples = 7\nvalue = [5, 2]\nclass = Non_Recid", fillcolor="#efb388"] ;
505 -> 507 ;
508 [label="crime_subtype_Theft <= 0.5\ngini = 0.444\nsamples = 12\nvalue = [8, 4]\nclass = Non_Recid", fillcolor="#f2c09c"] ;
504 -> 508 ;
509 [label="gini = 0.48\nsamples = 5\nvalue = [3, 2]\nclass = Non_Recid", fillcolor="#f6d5bd"] ;
508 -> 509 ;
510 [label="gini = 0.408\nsamples = 7\nvalue = [5, 2]\nclass = Non_Recid", fillcolor="#efb388"] ;
508 -> 510 ;
511 [label="super_dist_5JD <= 0.5\ngini = 0.472\nsamples = 498\nvalue = [190, 308]\nclass = Yes_Recid", fillcolor="#b3d9f5"] ;
431 -> 511 ;
512 [label="target_pop_Yes <= 0.5\ngini = 0.484\nsamples = 359\nvalue = [147, 212]\nclass = Yes_Recid", fillcolor="#c2e1f7"] ;
511 -> 512 ;
513 [label="super_dist_8JD <= 0.5\ngini = 0.447\nsamples = 83\nvalue = [28, 55]\nclass = Yes_Recid", fillcolor="#9ecff2"] ;
512 -> 513 ;
514 [label="age_number <= -0.885\ngini = 0.414\nsamples = 65\nvalue = [19, 46]\nclass = Yes_Recid", fillcolor="#8bc5f0"] ;
513 -> 514 ;
515 [label="super_dist_1JD <= 0.5\ngini = 0.32\nsamples = 15\nvalue = [3, 12]\nclass = Yes_Recid", fillcolor="#6ab6ec"] ;
514 -> 515 ;
516 [label="gini = 0.42\nsamples = 10\nvalue = [3, 7]\nclass = Yes_Recid", fillcolor="#8ec7f0"] ;
515 -> 516 ;
517 [label="gini = 0.0\nsamples = 5\nvalue = [0, 5]\nclass = Yes_Recid", fillcolor="#399de5"] ;
515 -> 517 ;
518 [label="super_dist_2JD <= 0.5\ngini = 0.435\nsamples = 50\nvalue = [16, 34]\nclass = Yes_Recid", fillcolor="#96cbf1"] ;
514 -> 518 ;
519 [label="super_dist_1JD <= 0.5\ngini = 0.416\nsamples = 44\nvalue = [13, 31]\nclass = Yes_Recid", fillcolor="#8cc6f0"] ;
518 -> 519 ;
520 [label="super_dist_3JD <= 0.5\ngini = 0.365\nsamples = 25\nvalue = [6, 19]\nclass = Yes_Recid", fillcolor="#78bced"] ;
519 -> 520 ;
521 [label="release_type_Parole Granted <= 0.5\ngini = 0.291\nsamples = 17\nvalue = [3, 14]\nclass = Yes_Recid", fillcolor="#63b2eb"] ;
520 -> 521 ;
522 [label="(...)", fillcolor="#C0C0C0"] ;
521 -> 522 ;
523 [label="(...)", fillcolor="#C0C0C0"] ;
521 -> 523 ;
524 [label="gini = 0.469\nsamples = 8\nvalue = [3, 5]\nclass = Yes_Recid", fillcolor="#b0d8f5"] ;
520 -> 524 ;
525 [label="release_type_Parole Granted <= 0.5\ngini = 0.465\nsamples = 19\nvalue = [7, 12]\nclass = Yes_Recid", fillcolor="#acd6f4"] ;
519 -> 525 ;
526 [label="gini = 0.278\nsamples = 12\nvalue = [2, 10]\nclass = Yes_Recid", fillcolor="#61b1ea"] ;
525 -> 526 ;
527 [label="gini = 0.408\nsamples = 7\nvalue = [5, 2]\nclass = Non_Recid", fillcolor="#efb388"] ;
525 -> 527 ;
528 [label="gini = 0.5\nsamples = 6\nvalue = [3, 3]\nclass = Non_Recid", fillcolor="#ffffff"] ;
518 -> 528 ;
529 [label="gini = 0.5\nsamples = 18\nvalue = [9, 9]\nclass = Non_Recid", fillcolor="#ffffff"] ;
513 -> 529 ;
530 [label="super_dist_3JD <= 0.5\ngini = 0.491\nsamples = 276\nvalue = [119, 157]\nclass = Yes_Recid", fillcolor="#cfe7f9"] ;
512 -> 530 ;
531 [label="super_dist_4JD <= 0.5\ngini = 0.486\nsamples = 247\nvalue = [103, 144]\nclass = Yes_Recid", fillcolor="#c7e3f8"] ;
530 -> 531 ;
532 [label="release_type_Parole <= 0.5\ngini = 0.489\nsamples = 228\nvalue = [97, 131]\nclass = Yes_Recid", fillcolor="#cce6f8"] ;
531 -> 532 ;
533 [label="super_dist_2JD <= 0.5\ngini = 0.47\nsamples = 90\nvalue = [34, 56]\nclass = Yes_Recid", fillcolor="#b1d8f5"] ;
532 -> 533 ;
534 [label="super_dist_8JD <= 0.5\ngini = 0.485\nsamples = 75\nvalue = [31, 44]\nclass = Yes_Recid", fillcolor="#c4e2f7"] ;
533 -> 534 ;
535 [label="super_dist_6JD <= 0.5\ngini = 0.473\nsamples = 47\nvalue = [18, 29]\nclass = Yes_Recid", fillcolor="#b4daf5"] ;
534 -> 535 ;
536 [label="(...)", fillcolor="#C0C0C0"] ;
535 -> 536 ;
539 [label="(...)", fillcolor="#C0C0C0"] ;
535 -> 539 ;
540 [label="gini = 0.497\nsamples = 28\nvalue = [13, 15]\nclass = Yes_Recid", fillcolor="#e5f2fc"] ;
534 -> 540 ;
541 [label="gini = 0.32\nsamples = 15\nvalue = [3, 12]\nclass = Yes_Recid", fillcolor="#6ab6ec"] ;
533 -> 541 ;
542 [label="super_dist_8JD <= 0.5\ngini = 0.496\nsamples = 138\nvalue = [63, 75]\nclass = Yes_Recid", fillcolor="#dfeffb"] ;
532 -> 542 ;
543 [label="super_dist_2JD <= 0.5\ngini = 0.5\nsamples = 97\nvalue = [49, 48]\nclass = Non_Recid", fillcolor="#fefcfb"] ;
542 -> 543 ;
544 [label="super_dist_7JD <= 0.5\ngini = 0.498\nsamples = 64\nvalue = [34, 30]\nclass = Non_Recid", fillcolor="#fcf0e8"] ;
543 -> 544 ;
545 [label="(...)", fillcolor="#C0C0C0"] ;
544 -> 545 ;
550 [label="(...)", fillcolor="#C0C0C0"] ;
544 -> 550 ;
553 [label="age_enc <= -0.94\ngini = 0.496\nsamples = 33\nvalue = [15, 18]\nclass = Yes_Recid", fillcolor="#deeffb"] ;
543 -> 553 ;
554 [label="(...)", fillcolor="#C0C0C0"] ;
553 -> 554 ;
555 [label="(...)", fillcolor="#C0C0C0"] ;
553 -> 555 ;
556 [label="age_enc <= -0.94\ngini = 0.45\nsamples = 41\nvalue = [14, 27]\nclass = Yes_Recid", fillcolor="#a0d0f2"] ;
542 -> 556 ;
557 [label="gini = 0.496\nsamples = 11\nvalue = [5, 6]\nclass = Yes_Recid", fillcolor="#deeffb"] ;
556 -> 557 ;
558 [label="gini = 0.42\nsamples = 30\nvalue = [9, 21]\nclass = Yes_Recid", fillcolor="#8ec7f0"] ;
556 -> 558 ;
559 [label="release_type_Parole <= 0.5\ngini = 0.432\nsamples = 19\nvalue = [6, 13]\nclass = Yes_Recid", fillcolor="#94caf1"] ;
531 -> 559 ;
560 [label="gini = 0.5\nsamples = 6\nvalue = [3, 3]\nclass = Non_Recid", fillcolor="#ffffff"] ;
559 -> 560 ;
561 [label="gini = 0.355\nsamples = 13\nvalue = [3, 10]\nclass = Yes_Recid", fillcolor="#74baed"] ;
559 -> 561 ;
562 [label="release_type_Parole Granted <= 0.5\ngini = 0.495\nsamples = 29\nvalue = [16, 13]\nclass = Non_Recid", fillcolor="#fae7da"] ;
530 -> 562 ;
563 [label="gini = 0.488\nsamples = 19\nvalue = [11, 8]\nclass = Non_Recid", fillcolor="#f8ddc9"] ;
562 -> 563 ;
564 [label="age_enc <= -0.94\ngini = 0.5\nsamples = 10\nvalue = [5, 5]\nclass = Non_Recid", fillcolor="#ffffff"] ;
562 -> 564 ;
565 [label="gini = 0.48\nsamples = 5\nvalue = [3, 2]\nclass = Non_Recid", fillcolor="#f6d5bd"] ;
564 -> 565 ;
566 [label="gini = 0.48\nsamples = 5\nvalue = [2, 3]\nclass = Yes_Recid", fillcolor="#bddef6"] ;
564 -> 566 ;
567 [label="age_number <= -0.885\ngini = 0.427\nsamples = 139\nvalue = [43, 96]\nclass = Yes_Recid", fillcolor="#92c9f1"] ;
511 -> 567 ;
568 [label="release_type_Parole <= 0.5\ngini = 0.497\nsamples = 24\nvalue = [11, 13]\nclass = Yes_Recid", fillcolor="#e1f0fb"] ;
567 -> 568 ;
569 [label="gini = 0.497\nsamples = 13\nvalue = [7, 6]\nclass = Non_Recid", fillcolor="#fbede3"] ;
568 -> 569 ;
570 [label="gini = 0.463\nsamples = 11\nvalue = [4, 7]\nclass = Yes_Recid", fillcolor="#aad5f4"] ;
568 -> 570 ;
571 [label="target_pop_No <= 0.5\ngini = 0.402\nsamples = 115\nvalue = [32, 83]\nclass = Yes_Recid", fillcolor="#85c3ef"] ;
567 -> 571 ;
572 [label="release_type_Parole <= 0.5\ngini = 0.422\nsamples = 86\nvalue = [26, 60]\nclass = Yes_Recid", fillcolor="#8fc7f0"] ;
571 -> 572 ;
573 [label="gini = 0.334\nsamples = 33\nvalue = [7, 26]\nclass = Yes_Recid", fillcolor="#6eb7ec"] ;
572 -> 573 ;
574 [label="gini = 0.46\nsamples = 53\nvalue = [19, 34]\nclass = Yes_Recid", fillcolor="#a8d4f4"] ;
572 -> 574 ;
575 [label="release_type_Parole <= 0.5\ngini = 0.328\nsamples = 29\nvalue = [6, 23]\nclass = Yes_Recid", fillcolor="#6db7ec"] ;
571 -> 575 ;
576 [label="gini = 0.494\nsamples = 9\nvalue = [5, 4]\nclass = Non_Recid", fillcolor="#fae6d7"] ;
575 -> 576 ;
577 [label="gini = 0.095\nsamples = 20\nvalue = [1, 19]\nclass = Yes_Recid", fillcolor="#43a2e6"] ;
575 -> 577 ;
578 [label="release_type_Discharged - Expiration of Sentence <= 0.5\ngini = 0.484\nsamples = 491\nvalue = [290, 201]\nclass = Non_Recid", fillcolor="#f7d8c2"] ;
124 -> 578 ;
579 [label="super_dist_1JD <= 0.5\ngini = 0.472\nsamples = 443\nvalue = [274, 169]\nclass = Non_Recid", fillcolor="#f5cfb3"] ;
578 -> 579 ;
580 [label="super_dist_5JD <= 0.5\ngini = 0.453\nsamples = 335\nvalue = [219, 116]\nclass = Non_Recid", fillcolor="#f3c4a2"] ;
579 -> 580 ;
581 [label="super_dist_4JD <= 0.5\ngini = 0.402\nsamples = 194\nvalue = [140, 54]\nclass = Non_Recid", fillcolor="#efb285"] ;
580 -> 581 ;
582 [label="target_pop_No <= 0.5\ngini = 0.388\nsamples = 182\nvalue = [134, 48]\nclass = Non_Recid", fillcolor="#eeae80"] ;
581 -> 582 ;
583 [label="super_dist_6JD <= 0.5\ngini = 0.356\nsamples = 151\nvalue = [116, 35]\nclass = Non_Recid", fillcolor="#eda775"] ;
582 -> 583 ;
584 [label="crime_subtype_Robbery <= 0.5\ngini = 0.322\nsamples = 119\nvalue = [95, 24]\nclass = Non_Recid", fillcolor="#eca16b"] ;
583 -> 584 ;
585 [label="age_enc <= -0.94\ngini = 0.306\nsamples = 106\nvalue = [86, 20]\nclass = Non_Recid", fillcolor="#eb9e67"] ;
584 -> 585 ;
586 [label="crime_subtype_Other Violent <= 0.5\ngini = 0.375\nsamples = 28\nvalue = [21, 7]\nclass = Non_Recid", fillcolor="#eeab7b"] ;
585 -> 586 ;
587 [label="race_ethnicity_White <= 0.5\ngini = 0.455\nsamples = 20\nvalue = [13, 7]\nclass = Non_Recid", fillcolor="#f3c5a4"] ;
586 -> 587 ;
588 [label="gini = 0.494\nsamples = 9\nvalue = [4, 5]\nclass = Yes_Recid", fillcolor="#d7ebfa"] ;
587 -> 588 ;
589 [label="super_dist_2JD <= 0.5\ngini = 0.298\nsamples = 11\nvalue = [9, 2]\nclass = Non_Recid", fillcolor="#eb9d65"] ;
587 -> 589 ;
590 [label="(...)", fillcolor="#C0C0C0"] ;
589 -> 590 ;
591 [label="(...)", fillcolor="#C0C0C0"] ;
589 -> 591 ;
592 [label="gini = 0.0\nsamples = 8\nvalue = [8, 0]\nclass = Non_Recid", fillcolor="#e58139"] ;
586 -> 592 ;
593 [label="race_ethnicity_Black <= 0.5\ngini = 0.278\nsamples = 78\nvalue = [65, 13]\nclass = Non_Recid", fillcolor="#ea9a61"] ;
585 -> 593 ;
594 [label="crime_class_Felony - Enhanced <= 0.5\ngini = 0.316\nsamples = 61\nvalue = [49, 12]\nclass = Non_Recid", fillcolor="#eba069"] ;
593 -> 594 ;
595 [label="super_dist_7JD <= 0.5\ngini = 0.341\nsamples = 55\nvalue = [43, 12]\nclass = Non_Recid", fillcolor="#eca470"] ;
594 -> 595 ;
596 [label="(...)", fillcolor="#C0C0C0"] ;
595 -> 596 ;
611 [label="(...)", fillcolor="#C0C0C0"] ;
595 -> 611 ;
612 [label="gini = 0.0\nsamples = 6\nvalue = [6, 0]\nclass = Non_Recid", fillcolor="#e58139"] ;
594 -> 612 ;
613 [label="crime_class_C Felony <= 0.5\ngini = 0.111\nsamples = 17\nvalue = [16, 1]\nclass = Non_Recid", fillcolor="#e78945"] ;
593 -> 613 ;
614 [label="gini = 0.32\nsamples = 5\nvalue = [4, 1]\nclass = Non_Recid", fillcolor="#eca06a"] ;
613 -> 614 ;
615 [label="gini = 0.0\nsamples = 12\nvalue = [12, 0]\nclass = Non_Recid", fillcolor="#e58139"] ;
613 -> 615 ;
616 [label="super_dist_7JD <= 0.5\ngini = 0.426\nsamples = 13\nvalue = [9, 4]\nclass = Non_Recid", fillcolor="#f1b991"] ;
584 -> 616 ;
617 [label="gini = 0.469\nsamples = 8\nvalue = [5, 3]\nclass = Non_Recid", fillcolor="#f5cdb0"] ;
616 -> 617 ;
618 [label="gini = 0.32\nsamples = 5\nvalue = [4, 1]\nclass = Non_Recid", fillcolor="#eca06a"] ;
616 -> 618 ;
619 [label="crime_class_C Felony <= 0.5\ngini = 0.451\nsamples = 32\nvalue = [21, 11]\nclass = Non_Recid", fillcolor="#f3c3a1"] ;
583 -> 619 ;
620 [label="gini = 0.496\nsamples = 11\nvalue = [5, 6]\nclass = Yes_Recid", fillcolor="#deeffb"] ;
619 -> 620 ;
621 [label="race_ethnicity_Black <= 0.5\ngini = 0.363\nsamples = 21\nvalue = [16, 5]\nclass = Non_Recid", fillcolor="#eda877"] ;
619 -> 621 ;
622 [label="gini = 0.198\nsamples = 9\nvalue = [8, 1]\nclass = Non_Recid", fillcolor="#e89152"] ;
621 -> 622 ;
623 [label="crime_subtype_Robbery <= 0.5\ngini = 0.444\nsamples = 12\nvalue = [8, 4]\nclass = Non_Recid", fillcolor="#f2c09c"] ;
621 -> 623 ;
624 [label="gini = 0.5\nsamples = 6\nvalue = [3, 3]\nclass = Non_Recid", fillcolor="#ffffff"] ;
623 -> 624 ;
625 [label="gini = 0.278\nsamples = 6\nvalue = [5, 1]\nclass = Non_Recid", fillcolor="#ea9a61"] ;
623 -> 625 ;
626 [label="crime_subtype_Assault <= 0.5\ngini = 0.487\nsamples = 31\nvalue = [18, 13]\nclass = Non_Recid", fillcolor="#f8dcc8"] ;
582 -> 626 ;
627 [label="crime_class_C Felony <= 0.5\ngini = 0.432\nsamples = 19\nvalue = [13, 6]\nclass = Non_Recid", fillcolor="#f1bb94"] ;
626 -> 627 ;
628 [label="gini = 0.245\nsamples = 7\nvalue = [6, 1]\nclass = Non_Recid", fillcolor="#e9965a"] ;
627 -> 628 ;
629 [label="crime_subtype_Sex <= 0.5\ngini = 0.486\nsamples = 12\nvalue = [7, 5]\nclass = Non_Recid", fillcolor="#f8dbc6"] ;
627 -> 629 ;
630 [label="gini = 0.5\nsamples = 6\nvalue = [3, 3]\nclass = Non_Recid", fillcolor="#ffffff"] ;
629 -> 630 ;
631 [label="gini = 0.444\nsamples = 6\nvalue = [4, 2]\nclass = Non_Recid", fillcolor="#f2c09c"] ;
629 -> 631 ;
632 [label="race_ethnicity_White <= 0.5\ngini = 0.486\nsamples = 12\nvalue = [5, 7]\nclass = Yes_Recid", fillcolor="#c6e3f8"] ;
626 -> 632 ;
633 [label="gini = 0.48\nsamples = 5\nvalue = [2, 3]\nclass = Yes_Recid", fillcolor="#bddef6"] ;
632 -> 633 ;
634 [label="gini = 0.49\nsamples = 7\nvalue = [3, 4]\nclass = Yes_Recid", fillcolor="#cee6f8"] ;
632 -> 634 ;
635 [label="release_type_Parole Granted <= 0.5\ngini = 0.5\nsamples = 12\nvalue = [6, 6]\nclass = Non_Recid", fillcolor="#ffffff"] ;
581 -> 635 ;
636 [label="gini = 0.408\nsamples = 7\nvalue = [5, 2]\nclass = Non_Recid", fillcolor="#efb388"] ;
635 -> 636 ;
637 [label="gini = 0.32\nsamples = 5\nvalue = [1, 4]\nclass = Yes_Recid", fillcolor="#6ab6ec"] ;
635 -> 637 ;
638 [label="race_ethnicity_White <= 0.5\ngini = 0.493\nsamples = 141\nvalue = [79, 62]\nclass = Non_Recid", fillcolor="#f9e4d4"] ;
580 -> 638 ;
639 [label="crime_subtype_Other Violent <= 0.5\ngini = 0.46\nsamples = 64\nvalue = [41, 23]\nclass = Non_Recid", fillcolor="#f4c8a8"] ;
638 -> 639 ;
640 [label="release_type_Parole Granted <= 0.5\ngini = 0.38\nsamples = 47\nvalue = [35, 12]\nclass = Non_Recid", fillcolor="#eeac7d"] ;
639 -> 640 ;
641 [label="crime_class_C Felony <= 0.5\ngini = 0.454\nsamples = 23\nvalue = [15, 8]\nclass = Non_Recid", fillcolor="#f3c4a3"] ;
640 -> 641 ;
642 [label="gini = 0.49\nsamples = 7\nvalue = [3, 4]\nclass = Yes_Recid", fillcolor="#cee6f8"] ;
641 -> 642 ;
643 [label="age_number <= -0.885\ngini = 0.375\nsamples = 16\nvalue = [12, 4]\nclass = Non_Recid", fillcolor="#eeab7b"] ;
641 -> 643 ;
644 [label="gini = 0.219\nsamples = 8\nvalue = [7, 1]\nclass = Non_Recid", fillcolor="#e99355"] ;
643 -> 644 ;
645 [label="gini = 0.469\nsamples = 8\nvalue = [5, 3]\nclass = Non_Recid", fillcolor="#f5cdb0"] ;
643 -> 645 ;
646 [label="crime_class_C Felony <= 0.5\ngini = 0.278\nsamples = 24\nvalue = [20, 4]\nclass = Non_Recid", fillcolor="#ea9a61"] ;
640 -> 646 ;
647 [label="gini = 0.0\nsamples = 7\nvalue = [7, 0]\nclass = Non_Recid", fillcolor="#e58139"] ;
646 -> 647 ;
648 [label="crime_subtype_Robbery <= 0.5\ngini = 0.36\nsamples = 17\nvalue = [13, 4]\nclass = Non_Recid", fillcolor="#eda876"] ;
646 -> 648 ;
649 [label="gini = 0.298\nsamples = 11\nvalue = [9, 2]\nclass = Non_Recid", fillcolor="#eb9d65"] ;
648 -> 649 ;
650 [label="gini = 0.444\nsamples = 6\nvalue = [4, 2]\nclass = Non_Recid", fillcolor="#f2c09c"] ;
648 -> 650 ;
651 [label="crime_class_C Felony <= 0.5\ngini = 0.457\nsamples = 17\nvalue = [6, 11]\nclass = Yes_Recid", fillcolor="#a5d2f3"] ;
639 -> 651 ;
652 [label="gini = 0.408\nsamples = 7\nvalue = [5, 2]\nclass = Non_Recid", fillcolor="#efb388"] ;
651 -> 652 ;
653 [label="gini = 0.18\nsamples = 10\nvalue = [1, 9]\nclass = Yes_Recid", fillcolor="#4fa8e8"] ;
651 -> 653 ;
654 [label="crime_subtype_Sex <= 0.5\ngini = 0.5\nsamples = 77\nvalue = [38, 39]\nclass = Yes_Recid", fillcolor="#fafcfe"] ;
638 -> 654 ;
655 [label="crime_subtype_Assault <= 0.5\ngini = 0.498\nsamples = 71\nvalue = [33, 38]\nclass = Yes_Recid", fillcolor="#e5f2fc"] ;
654 -> 655 ;
656 [label="crime_class_Aggravated Misdemeanor <= 0.5\ngini = 0.493\nsamples = 25\nvalue = [14, 11]\nclass = Non_Recid", fillcolor="#f9e4d5"] ;
655 -> 656 ;
657 [label="release_type_Parole Granted <= 0.5\ngini = 0.455\nsamples = 20\nvalue = [13, 7]\nclass = Non_Recid", fillcolor="#f3c5a4"] ;
656 -> 657 ;
658 [label="crime_subtype_Other Violent <= 0.5\ngini = 0.473\nsamples = 13\nvalue = [8, 5]\nclass = Non_Recid", fillcolor="#f5d0b5"] ;
657 -> 658 ;
659 [label="gini = 0.444\nsamples = 6\nvalue = [4, 2]\nclass = Non_Recid", fillcolor="#f2c09c"] ;
658 -> 659 ;
660 [label="gini = 0.49\nsamples = 7\nvalue = [4, 3]\nclass = Non_Recid", fillcolor="#f8e0ce"] ;
658 -> 660 ;
661 [label="gini = 0.408\nsamples = 7\nvalue = [5, 2]\nclass = Non_Recid", fillcolor="#efb388"] ;
657 -> 661 ;
662 [label="gini = 0.32\nsamples = 5\nvalue = [1, 4]\nclass = Yes_Recid", fillcolor="#6ab6ec"] ;
656 -> 662 ;
663 [label="crime_class_Aggravated Misdemeanor <= 0.5\ngini = 0.485\nsamples = 46\nvalue = [19, 27]\nclass = Yes_Recid", fillcolor="#c4e2f7"] ;
655 -> 663 ;
664 [label="release_type_Parole Granted <= 0.5\ngini = 0.388\nsamples = 19\nvalue = [5, 14]\nclass = Yes_Recid", fillcolor="#80c0ee"] ;
663 -> 664 ;
665 [label="gini = 0.375\nsamples = 12\nvalue = [3, 9]\nclass = Yes_Recid", fillcolor="#7bbeee"] ;
664 -> 665 ;
666 [label="gini = 0.408\nsamples = 7\nvalue = [2, 5]\nclass = Yes_Recid", fillcolor="#88c4ef"] ;
664 -> 666 ;
667 [label="target_pop_Yes <= 0.5\ngini = 0.499\nsamples = 27\nvalue = [14, 13]\nclass = Non_Recid", fillcolor="#fdf6f1"] ;
663 -> 667 ;
668 [label="gini = 0.408\nsamples = 7\nvalue = [2, 5]\nclass = Yes_Recid", fillcolor="#88c4ef"] ;
667 -> 668 ;
669 [label="age_enc <= -0.94\ngini = 0.48\nsamples = 20\nvalue = [12, 8]\nclass = Non_Recid", fillcolor="#f6d5bd"] ;
667 -> 669 ;
670 [label="gini = 0.5\nsamples = 8\nvalue = [4, 4]\nclass = Non_Recid", fillcolor="#ffffff"] ;
669 -> 670 ;
671 [label="release_type_Parole <= 0.5\ngini = 0.444\nsamples = 12\nvalue = [8, 4]\nclass = Non_Recid", fillcolor="#f2c09c"] ;
669 -> 671 ;
672 [label="gini = 0.48\nsamples = 5\nvalue = [3, 2]\nclass = Non_Recid", fillcolor="#f6d5bd"] ;
671 -> 672 ;
673 [label="gini = 0.408\nsamples = 7\nvalue = [5, 2]\nclass = Non_Recid", fillcolor="#efb388"] ;
671 -> 673 ;
674 [label="gini = 0.278\nsamples = 6\nvalue = [5, 1]\nclass = Non_Recid", fillcolor="#ea9a61"] ;
654 -> 674 ;
675 [label="crime_class_Aggravated Misdemeanor <= 0.5\ngini = 0.5\nsamples = 108\nvalue = [55, 53]\nclass = Non_Recid", fillcolor="#fefaf8"] ;
579 -> 675 ;
676 [label="crime_subtype_Assault <= 0.5\ngini = 0.495\nsamples = 91\nvalue = [50, 41]\nclass = Non_Recid", fillcolor="#fae8db"] ;
675 -> 676 ;
677 [label="race_ethnicity_White <= 0.5\ngini = 0.499\nsamples = 55\nvalue = [26, 29]\nclass = Yes_Recid", fillcolor="#ebf5fc"] ;
676 -> 677 ;
678 [label="release_type_Parole <= 0.5\ngini = 0.408\nsamples = 28\nvalue = [8, 20]\nclass = Yes_Recid", fillcolor="#88c4ef"] ;
677 -> 678 ;
679 [label="crime_class_B Felony <= 0.5\ngini = 0.496\nsamples = 11\nvalue = [5, 6]\nclass = Yes_Recid", fillcolor="#deeffb"] ;
678 -> 679 ;
680 [label="gini = 0.444\nsamples = 6\nvalue = [2, 4]\nclass = Yes_Recid", fillcolor="#9ccef2"] ;
679 -> 680 ;
681 [label="gini = 0.48\nsamples = 5\nvalue = [3, 2]\nclass = Non_Recid", fillcolor="#f6d5bd"] ;
679 -> 681 ;
682 [label="crime_subtype_Other Violent <= 0.5\ngini = 0.291\nsamples = 17\nvalue = [3, 14]\nclass = Yes_Recid", fillcolor="#63b2eb"] ;
678 -> 682 ;
683 [label="gini = 0.5\nsamples = 6\nvalue = [3, 3]\nclass = Non_Recid", fillcolor="#ffffff"] ;
682 -> 683 ;
684 [label="gini = 0.0\nsamples = 11\nvalue = [0, 11]\nclass = Yes_Recid", fillcolor="#399de5"] ;
682 -> 684 ;
685 [label="age_number <= -0.885\ngini = 0.444\nsamples = 27\nvalue = [18, 9]\nclass = Non_Recid", fillcolor="#f2c09c"] ;
677 -> 685 ;
686 [label="gini = 0.444\nsamples = 6\nvalue = [2, 4]\nclass = Yes_Recid", fillcolor="#9ccef2"] ;
685 -> 686 ;
687 [label="crime_subtype_Robbery <= 0.5\ngini = 0.363\nsamples = 21\nvalue = [16, 5]\nclass = Non_Recid", fillcolor="#eda877"] ;
685 -> 687 ;
688 [label="release_type_Parole Granted <= 0.5\ngini = 0.245\nsamples = 14\nvalue = [12, 2]\nclass = Non_Recid", fillcolor="#e9965a"] ;
687 -> 688 ;
689 [label="gini = 0.278\nsamples = 6\nvalue = [5, 1]\nclass = Non_Recid", fillcolor="#ea9a61"] ;
688 -> 689 ;
690 [label="gini = 0.219\nsamples = 8\nvalue = [7, 1]\nclass = Non_Recid", fillcolor="#e99355"] ;
688 -> 690 ;
691 [label="gini = 0.49\nsamples = 7\nvalue = [4, 3]\nclass = Non_Recid", fillcolor="#f8e0ce"] ;
687 -> 691 ;
692 [label="release_type_Parole <= 0.5\ngini = 0.444\nsamples = 36\nvalue = [24, 12]\nclass = Non_Recid", fillcolor="#f2c09c"] ;
676 -> 692 ;
693 [label="age_number <= -0.885\ngini = 0.484\nsamples = 17\nvalue = [10, 7]\nclass = Non_Recid", fillcolor="#f7d9c4"] ;
692 -> 693 ;
694 [label="gini = 0.5\nsamples = 10\nvalue = [5, 5]\nclass = Non_Recid", fillcolor="#ffffff"] ;
693 -> 694 ;
695 [label="gini = 0.408\nsamples = 7\nvalue = [5, 2]\nclass = Non_Recid", fillcolor="#efb388"] ;
693 -> 695 ;
696 [label="target_pop_Yes <= 0.5\ngini = 0.388\nsamples = 19\nvalue = [14, 5]\nclass = Non_Recid", fillcolor="#eeae80"] ;
692 -> 696 ;
697 [label="gini = 0.48\nsamples = 5\nvalue = [3, 2]\nclass = Non_Recid", fillcolor="#f6d5bd"] ;
696 -> 697 ;
698 [label="gini = 0.337\nsamples = 14\nvalue = [11, 3]\nclass = Non_Recid", fillcolor="#eca36f"] ;
696 -> 698 ;
699 [label="race_ethnicity_Black <= 0.5\ngini = 0.415\nsamples = 17\nvalue = [5, 12]\nclass = Yes_Recid", fillcolor="#8bc6f0"] ;
675 -> 699 ;
700 [label="gini = 0.375\nsamples = 8\nvalue = [2, 6]\nclass = Yes_Recid", fillcolor="#7bbeee"] ;
699 -> 700 ;
701 [label="gini = 0.444\nsamples = 9\nvalue = [3, 6]\nclass = Yes_Recid", fillcolor="#9ccef2"] ;
699 -> 701 ;
702 [label="crime_class_Aggravated Misdemeanor <= 0.5\ngini = 0.444\nsamples = 48\nvalue = [16, 32]\nclass = Yes_Recid", fillcolor="#9ccef2"] ;
578 -> 702 ;
703 [label="gini = 0.0\nsamples = 6\nvalue = [0, 6]\nclass = Yes_Recid", fillcolor="#399de5"] ;
702 -> 703 ;
704 [label="super_dist_5JD <= 0.5\ngini = 0.472\nsamples = 42\nvalue = [16, 26]\nclass = Yes_Recid", fillcolor="#b3d9f5"] ;
702 -> 704 ;
705 [label="super_dist_1JD <= 0.5\ngini = 0.499\nsamples = 23\nvalue = [11, 12]\nclass = Yes_Recid", fillcolor="#eff7fd"] ;
704 -> 705 ;
706 [label="age_number <= -0.885\ngini = 0.49\nsamples = 14\nvalue = [8, 6]\nclass = Non_Recid", fillcolor="#f8e0ce"] ;
705 -> 706 ;
707 [label="gini = 0.48\nsamples = 5\nvalue = [3, 2]\nclass = Non_Recid", fillcolor="#f6d5bd"] ;
706 -> 707 ;
708 [label="gini = 0.494\nsamples = 9\nvalue = [5, 4]\nclass = Non_Recid", fillcolor="#fae6d7"] ;
706 -> 708 ;
709 [label="gini = 0.444\nsamples = 9\nvalue = [3, 6]\nclass = Yes_Recid", fillcolor="#9ccef2"] ;
705 -> 709 ;
710 [label="race_ethnicity_White <= 0.5\ngini = 0.388\nsamples = 19\nvalue = [5, 14]\nclass = Yes_Recid", fillcolor="#80c0ee"] ;
704 -> 710 ;
711 [label="gini = 0.48\nsamples = 5\nvalue = [2, 3]\nclass = Yes_Recid", fillcolor="#bddef6"] ;
710 -> 711 ;
712 [label="age_number <= -0.885\ngini = 0.337\nsamples = 14\nvalue = [3, 11]\nclass = Yes_Recid", fillcolor="#6fb8ec"] ;
710 -> 712 ;
713 [label="gini = 0.278\nsamples = 6\nvalue = [1, 5]\nclass = Yes_Recid", fillcolor="#61b1ea"] ;
712 -> 713 ;
714 [label="gini = 0.375\nsamples = 8\nvalue = [2, 6]\nclass = Yes_Recid", fillcolor="#7bbeee"] ;
712 -> 714 ;
715 [label="race_ethnicity_White <= 0.5\ngini = 0.438\nsamples = 111\nvalue = [36, 75]\nclass = Yes_Recid", fillcolor="#98ccf1"] ;
123 -> 715 ;
716 [label="crime_subtype_Sex <= 0.5\ngini = 0.26\nsamples = 26\nvalue = [4, 22]\nclass = Yes_Recid", fillcolor="#5dafea"] ;
715 -> 716 ;
717 [label="gini = 0.0\nsamples = 9\nvalue = [0, 9]\nclass = Yes_Recid", fillcolor="#399de5"] ;
716 -> 717 ;
718 [label="super_dist_8JD <= 0.5\ngini = 0.36\nsamples = 17\nvalue = [4, 13]\nclass = Yes_Recid", fillcolor="#76bbed"] ;
716 -> 718 ;
719 [label="crime_class_C Felony <= 0.5\ngini = 0.444\nsamples = 12\nvalue = [4, 8]\nclass = Yes_Recid", fillcolor="#9ccef2"] ;
718 -> 719 ;
720 [label="gini = 0.444\nsamples = 6\nvalue = [2, 4]\nclass = Yes_Recid", fillcolor="#9ccef2"] ;
719 -> 720 ;
721 [label="gini = 0.444\nsamples = 6\nvalue = [2, 4]\nclass = Yes_Recid", fillcolor="#9ccef2"] ;
719 -> 721 ;
722 [label="gini = 0.0\nsamples = 5\nvalue = [0, 5]\nclass = Yes_Recid", fillcolor="#399de5"] ;
718 -> 722 ;
723 [label="super_dist_7JD <= 0.5\ngini = 0.469\nsamples = 85\nvalue = [32, 53]\nclass = Yes_Recid", fillcolor="#b1d8f5"] ;
715 -> 723 ;
724 [label="super_dist_2JD <= 0.5\ngini = 0.447\nsamples = 77\nvalue = [26, 51]\nclass = Yes_Recid", fillcolor="#9ecff2"] ;
723 -> 724 ;
725 [label="crime_subtype_Special Sentence Revocation <= 0.5\ngini = 0.431\nsamples = 70\nvalue = [22, 48]\nclass = Yes_Recid", fillcolor="#94caf1"] ;
724 -> 725 ;
726 [label="super_dist_4JD <= 0.5\ngini = 0.408\nsamples = 63\nvalue = [18, 45]\nclass = Yes_Recid", fillcolor="#88c4ef"] ;
725 -> 726 ;
727 [label="age_enc <= -0.94\ngini = 0.38\nsamples = 55\nvalue = [14, 41]\nclass = Yes_Recid", fillcolor="#7dbeee"] ;
726 -> 727 ;
728 [label="super_dist_3JD <= 0.5\ngini = 0.227\nsamples = 23\nvalue = [3, 20]\nclass = Yes_Recid", fillcolor="#57ace9"] ;
727 -> 728 ;
729 [label="super_dist_5JD <= 0.5\ngini = 0.305\nsamples = 16\nvalue = [3, 13]\nclass = Yes_Recid", fillcolor="#67b4eb"] ;
728 -> 729 ;
730 [label="super_dist_8JD <= 0.5\ngini = 0.397\nsamples = 11\nvalue = [3, 8]\nclass = Yes_Recid", fillcolor="#83c2ef"] ;
729 -> 730 ;
731 [label="gini = 0.444\nsamples = 6\nvalue = [2, 4]\nclass = Yes_Recid", fillcolor="#9ccef2"] ;
730 -> 731 ;
732 [label="gini = 0.32\nsamples = 5\nvalue = [1, 4]\nclass = Yes_Recid", fillcolor="#6ab6ec"] ;
730 -> 732 ;
733 [label="gini = 0.0\nsamples = 5\nvalue = [0, 5]\nclass = Yes_Recid", fillcolor="#399de5"] ;
729 -> 733 ;
734 [label="gini = 0.0\nsamples = 7\nvalue = [0, 7]\nclass = Yes_Recid", fillcolor="#399de5"] ;
728 -> 734 ;
735 [label="super_dist_3JD <= 0.5\ngini = 0.451\nsamples = 32\nvalue = [11, 21]\nclass = Yes_Recid", fillcolor="#a1d0f3"] ;
727 -> 735 ;
736 [label="super_dist_1JD <= 0.5\ngini = 0.417\nsamples = 27\nvalue = [8, 19]\nclass = Yes_Recid", fillcolor="#8cc6f0"] ;
735 -> 736 ;
737 [label="crime_type_Other <= 0.5\ngini = 0.363\nsamples = 21\nvalue = [5, 16]\nclass = Yes_Recid", fillcolor="#77bced"] ;
736 -> 737 ;
738 [label="super_dist_8JD <= 0.5\ngini = 0.305\nsamples = 16\nvalue = [3, 13]\nclass = Yes_Recid", fillcolor="#67b4eb"] ;
737 -> 738 ;
739 [label="gini = 0.219\nsamples = 8\nvalue = [1, 7]\nclass = Yes_Recid", fillcolor="#55abe9"] ;
738 -> 739 ;
740 [label="gini = 0.375\nsamples = 8\nvalue = [2, 6]\nclass = Yes_Recid", fillcolor="#7bbeee"] ;
738 -> 740 ;
741 [label="gini = 0.48\nsamples = 5\nvalue = [2, 3]\nclass = Yes_Recid", fillcolor="#bddef6"] ;
737 -> 741 ;
742 [label="gini = 0.5\nsamples = 6\nvalue = [3, 3]\nclass = Non_Recid", fillcolor="#ffffff"] ;
736 -> 742 ;
743 [label="gini = 0.48\nsamples = 5\nvalue = [3, 2]\nclass = Non_Recid", fillcolor="#f6d5bd"] ;
735 -> 743 ;
744 [label="gini = 0.5\nsamples = 8\nvalue = [4, 4]\nclass = Non_Recid", fillcolor="#ffffff"] ;
726 -> 744 ;
745 [label="gini = 0.49\nsamples = 7\nvalue = [4, 3]\nclass = Non_Recid", fillcolor="#f8e0ce"] ;
725 -> 745 ;
746 [label="gini = 0.49\nsamples = 7\nvalue = [4, 3]\nclass = Non_Recid", fillcolor="#f8e0ce"] ;
724 -> 746 ;
747 [label="gini = 0.375\nsamples = 8\nvalue = [6, 2]\nclass = Non_Recid", fillcolor="#eeab7b"] ;
723 -> 747 ;
748 [label="crime_subtype_Burglary <= 0.5\ngini = 0.486\nsamples = 2474\nvalue = [1441, 1033]\nclass = Non_Recid", fillcolor="#f8dbc7"] ;
6 -> 748 ;
749 [label="super_dist_7JD <= 0.5\ngini = 0.478\nsamples = 1926\nvalue = [1164, 762]\nclass = Non_Recid", fillcolor="#f6d3bb"] ;
748 -> 749 ;
750 [label="crime_subtype_Assault <= 0.5\ngini = 0.483\nsamples = 1720\nvalue = [1018, 702]\nclass = Non_Recid", fillcolor="#f7d8c2"] ;
749 -> 750 ;
751 [label="super_dist_6JD <= 0.5\ngini = 0.488\nsamples = 1478\nvalue = [855, 623]\nclass = Non_Recid", fillcolor="#f8ddc9"] ;
750 -> 751 ;
752 [label="crime_subtype_Flight/Escape <= 0.5\ngini = 0.491\nsamples = 1344\nvalue = [764, 580]\nclass = Non_Recid", fillcolor="#f9e1cf"] ;
751 -> 752 ;
753 [label="release_type_Parole <= 0.5\ngini = 0.49\nsamples = 1329\nvalue = [760, 569]\nclass = Non_Recid", fillcolor="#f8dfcd"] ;
752 -> 753 ;
754 [label="target_pop_Yes <= 0.5\ngini = 0.498\nsamples = 527\nvalue = [281, 246]\nclass = Non_Recid", fillcolor="#fcefe6"] ;
753 -> 754 ;
755 [label="race_ethnicity_White <= 0.5\ngini = 0.44\nsamples = 98\nvalue = [66, 32]\nclass = Non_Recid", fillcolor="#f2be99"] ;
754 -> 755 ;
756 [label="super_dist_3JD <= 0.5\ngini = 0.124\nsamples = 15\nvalue = [14, 1]\nclass = Non_Recid", fillcolor="#e78a47"] ;
755 -> 756 ;
757 [label="gini = 0.0\nsamples = 10\nvalue = [10, 0]\nclass = Non_Recid", fillcolor="#e58139"] ;
756 -> 757 ;
758 [label="gini = 0.32\nsamples = 5\nvalue = [4, 1]\nclass = Non_Recid", fillcolor="#eca06a"] ;
756 -> 758 ;
759 [label="crime_type_Violent <= 0.5\ngini = 0.468\nsamples = 83\nvalue = [52, 31]\nclass = Non_Recid", fillcolor="#f4ccaf"] ;
755 -> 759 ;
760 [label="release_type_Parole Granted <= 0.5\ngini = 0.481\nsamples = 77\nvalue = [46, 31]\nclass = Non_Recid", fillcolor="#f7d6be"] ;
759 -> 760 ;
761 [label="crime_type_Property <= 0.5\ngini = 0.49\nsamples = 14\nvalue = [6, 8]\nclass = Yes_Recid", fillcolor="#cee6f8"] ;
760 -> 761 ;
762 [label="gini = 0.346\nsamples = 9\nvalue = [2, 7]\nclass = Yes_Recid", fillcolor="#72b9ec"] ;
761 -> 762 ;
763 [label="gini = 0.32\nsamples = 5\nvalue = [4, 1]\nclass = Non_Recid", fillcolor="#eca06a"] ;
761 -> 763 ;
764 [label="super_dist_4JD <= 0.5\ngini = 0.464\nsamples = 63\nvalue = [40, 23]\nclass = Non_Recid", fillcolor="#f4c9ab"] ;
760 -> 764 ;
765 [label="crime_subtype_Forgery/Fraud <= 0.5\ngini = 0.444\nsamples = 57\nvalue = [38, 19]\nclass = Non_Recid", fillcolor="#f2c09c"] ;
764 -> 765 ;
766 [label="age_enc <= -0.94\ngini = 0.462\nsamples = 47\nvalue = [30, 17]\nclass = Non_Recid", fillcolor="#f4c8a9"] ;
765 -> 766 ;
767 [label="gini = 0.278\nsamples = 6\nvalue = [5, 1]\nclass = Non_Recid", fillcolor="#ea9a61"] ;
766 -> 767 ;
768 [label="crime_subtype_Trafficking <= 0.5\ngini = 0.476\nsamples = 41\nvalue = [25, 16]\nclass = Non_Recid", fillcolor="#f6d2b8"] ;
766 -> 768 ;
769 [label="(...)", fillcolor="#C0C0C0"] ;
768 -> 769 ;
778 [label="(...)", fillcolor="#C0C0C0"] ;
768 -> 778 ;
779 [label="gini = 0.32\nsamples = 10\nvalue = [8, 2]\nclass = Non_Recid", fillcolor="#eca06a"] ;
765 -> 779 ;
780 [label="gini = 0.444\nsamples = 6\nvalue = [2, 4]\nclass = Yes_Recid", fillcolor="#9ccef2"] ;
764 -> 780 ;
781 [label="gini = 0.0\nsamples = 6\nvalue = [6, 0]\nclass = Non_Recid", fillcolor="#e58139"] ;
759 -> 781 ;
782 [label="release_type_Parole Granted <= 0.5\ngini = 0.5\nsamples = 429\nvalue = [215, 214]\nclass = Non_Recid", fillcolor="#fffefe"] ;
754 -> 782 ;
783 [label="super_dist_8JD <= 0.5\ngini = 0.467\nsamples = 78\nvalue = [29, 49]\nclass = Yes_Recid", fillcolor="#aed7f4"] ;
782 -> 783 ;
784 [label="race_ethnicity_Black <= 0.5\ngini = 0.482\nsamples = 69\nvalue = [28, 41]\nclass = Yes_Recid", fillcolor="#c0e0f7"] ;
783 -> 784 ;
785 [label="crime_subtype_Forgery/Fraud <= 0.5\ngini = 0.465\nsamples = 57\nvalue = [21, 36]\nclass = Yes_Recid", fillcolor="#acd6f4"] ;
784 -> 785 ;
786 [label="release_type_Discharged - Expiration of Sentence <= 0.5\ngini = 0.449\nsamples = 50\nvalue = [17, 33]\nclass = Yes_Recid", fillcolor="#9fcff2"] ;
785 -> 786 ;
787 [label="crime_subtype_Sex <= 0.5\ngini = 0.485\nsamples = 29\nvalue = [12, 17]\nclass = Yes_Recid", fillcolor="#c5e2f7"] ;
786 -> 787 ;
788 [label="super_dist_3JD <= 0.5\ngini = 0.49\nsamples = 14\nvalue = [8, 6]\nclass = Non_Recid", fillcolor="#f8e0ce"] ;
787 -> 788 ;
789 [label="(...)", fillcolor="#C0C0C0"] ;
788 -> 789 ;
790 [label="(...)", fillcolor="#C0C0C0"] ;
788 -> 790 ;
791 [label="age_number <= -0.885\ngini = 0.391\nsamples = 15\nvalue = [4, 11]\nclass = Yes_Recid", fillcolor="#81c1ee"] ;
787 -> 791 ;
792 [label="(...)", fillcolor="#C0C0C0"] ;
791 -> 792 ;
793 [label="(...)", fillcolor="#C0C0C0"] ;
791 -> 793 ;
794 [label="crime_type_Property <= 0.5\ngini = 0.363\nsamples = 21\nvalue = [5, 16]\nclass = Yes_Recid", fillcolor="#77bced"] ;
786 -> 794 ;
795 [label="crime_subtype_Trafficking <= 0.5\ngini = 0.444\nsamples = 15\nvalue = [5, 10]\nclass = Yes_Recid", fillcolor="#9ccef2"] ;
794 -> 795 ;
796 [label="(...)", fillcolor="#C0C0C0"] ;
795 -> 796 ;
797 [label="(...)", fillcolor="#C0C0C0"] ;
795 -> 797 ;
798 [label="gini = 0.0\nsamples = 6\nvalue = [0, 6]\nclass = Yes_Recid", fillcolor="#399de5"] ;
794 -> 798 ;
799 [label="gini = 0.49\nsamples = 7\nvalue = [4, 3]\nclass = Non_Recid", fillcolor="#f8e0ce"] ;
785 -> 799 ;
800 [label="crime_type_Property <= 0.5\ngini = 0.486\nsamples = 12\nvalue = [7, 5]\nclass = Non_Recid", fillcolor="#f8dbc6"] ;
784 -> 800 ;
801 [label="gini = 0.32\nsamples = 5\nvalue = [4, 1]\nclass = Non_Recid", fillcolor="#eca06a"] ;
800 -> 801 ;
802 [label="gini = 0.49\nsamples = 7\nvalue = [3, 4]\nclass = Yes_Recid", fillcolor="#cee6f8"] ;
800 -> 802 ;
803 [label="gini = 0.198\nsamples = 9\nvalue = [1, 8]\nclass = Yes_Recid", fillcolor="#52a9e8"] ;
783 -> 803 ;
804 [label="race_ethnicity_Asian or Pacific Islander <= 0.5\ngini = 0.498\nsamples = 351\nvalue = [186, 165]\nclass = Non_Recid", fillcolor="#fcf1e9"] ;
782 -> 804 ;
805 [label="sex_Male <= 0.5\ngini = 0.498\nsamples = 346\nvalue = [185, 161]\nclass = Non_Recid", fillcolor="#fcefe5"] ;
804 -> 805 ;
806 [label="super_dist_5JD <= 0.5\ngini = 0.468\nsamples = 59\nvalue = [37, 22]\nclass = Non_Recid", fillcolor="#f4ccaf"] ;
805 -> 806 ;
807 [label="age_enc <= -0.94\ngini = 0.367\nsamples = 33\nvalue = [25, 8]\nclass = Non_Recid", fillcolor="#eda978"] ;
806 -> 807 ;
808 [label="gini = 0.198\nsamples = 9\nvalue = [8, 1]\nclass = Non_Recid", fillcolor="#e89152"] ;
807 -> 808 ;
809 [label="crime_type_Drug <= 0.5\ngini = 0.413\nsamples = 24\nvalue = [17, 7]\nclass = Non_Recid", fillcolor="#f0b58b"] ;
807 -> 809 ;
810 [label="super_dist_2JD <= 0.5\ngini = 0.444\nsamples = 18\nvalue = [12, 6]\nclass = Non_Recid", fillcolor="#f2c09c"] ;
809 -> 810 ;
811 [label="(...)", fillcolor="#C0C0C0"] ;
810 -> 811 ;
814 [label="(...)", fillcolor="#C0C0C0"] ;
810 -> 814 ;
815 [label="gini = 0.278\nsamples = 6\nvalue = [5, 1]\nclass = Non_Recid", fillcolor="#ea9a61"] ;
809 -> 815 ;
816 [label="crime_subtype_Forgery/Fraud <= 0.5\ngini = 0.497\nsamples = 26\nvalue = [12, 14]\nclass = Yes_Recid", fillcolor="#e3f1fb"] ;
806 -> 816 ;
817 [label="crime_type_Drug <= 0.5\ngini = 0.494\nsamples = 18\nvalue = [10, 8]\nclass = Non_Recid", fillcolor="#fae6d7"] ;
816 -> 817 ;
818 [label="gini = 0.463\nsamples = 11\nvalue = [7, 4]\nclass = Non_Recid", fillcolor="#f4c9aa"] ;
817 -> 818 ;
819 [label="gini = 0.49\nsamples = 7\nvalue = [3, 4]\nclass = Yes_Recid", fillcolor="#cee6f8"] ;
817 -> 819 ;
820 [label="gini = 0.375\nsamples = 8\nvalue = [2, 6]\nclass = Yes_Recid", fillcolor="#7bbeee"] ;
816 -> 820 ;
821 [label="crime_type_Property <= 0.5\ngini = 0.5\nsamples = 287\nvalue = [148, 139]\nclass = Non_Recid", fillcolor="#fdf7f3"] ;
805 -> 821 ;
822 [label="crime_subtype_Other Public Order <= 0.5\ngini = 0.497\nsamples = 204\nvalue = [110, 94]\nclass = Non_Recid", fillcolor="#fbede2"] ;
821 -> 822 ;
823 [label="super_dist_3JD <= 0.5\ngini = 0.496\nsamples = 194\nvalue = [106, 88]\nclass = Non_Recid", fillcolor="#fbeadd"] ;
822 -> 823 ;
824 [label="crime_subtype_Drug Possession <= 0.5\ngini = 0.493\nsamples = 168\nvalue = [94, 74]\nclass = Non_Recid", fillcolor="#f9e4d5"] ;
823 -> 824 ;
825 [label="(...)", fillcolor="#C0C0C0"] ;
824 -> 825 ;
864 [label="(...)", fillcolor="#C0C0C0"] ;
824 -> 864 ;
869 [label="age_enc <= -0.94\ngini = 0.497\nsamples = 26\nvalue = [12, 14]\nclass = Yes_Recid", fillcolor="#e3f1fb"] ;
823 -> 869 ;
870 [label="(...)", fillcolor="#C0C0C0"] ;
869 -> 870 ;
873 [label="(...)", fillcolor="#C0C0C0"] ;
869 -> 873 ;
876 [label="gini = 0.48\nsamples = 10\nvalue = [4, 6]\nclass = Yes_Recid", fillcolor="#bddef6"] ;
822 -> 876 ;
877 [label="super_dist_3JD <= 0.5\ngini = 0.496\nsamples = 83\nvalue = [38, 45]\nclass = Yes_Recid", fillcolor="#e0f0fb"] ;
821 -> 877 ;
878 [label="crime_subtype_Forgery/Fraud <= 0.5\ngini = 0.489\nsamples = 73\nvalue = [31, 42]\nclass = Yes_Recid", fillcolor="#cbe5f8"] ;
877 -> 878 ;
879 [label="super_dist_1JD <= 0.5\ngini = 0.477\nsamples = 51\nvalue = [20, 31]\nclass = Yes_Recid", fillcolor="#b9dcf6"] ;
878 -> 879 ;
880 [label="(...)", fillcolor="#C0C0C0"] ;
879 -> 880 ;
889 [label="(...)", fillcolor="#C0C0C0"] ;
879 -> 889 ;
892 [label="super_dist_5JD <= 0.5\ngini = 0.5\nsamples = 22\nvalue = [11, 11]\nclass = Non_Recid", fillcolor="#ffffff"] ;
878 -> 892 ;
893 [label="(...)", fillcolor="#C0C0C0"] ;
892 -> 893 ;
898 [label="(...)", fillcolor="#C0C0C0"] ;
892 -> 898 ;
899 [label="gini = 0.42\nsamples = 10\nvalue = [7, 3]\nclass = Non_Recid", fillcolor="#f0b78e"] ;
877 -> 899 ;
900 [label="gini = 0.32\nsamples = 5\nvalue = [1, 4]\nclass = Yes_Recid", fillcolor="#6ab6ec"] ;
804 -> 900 ;
901 [label="race_ethnicity_Hispanic <= 0.5\ngini = 0.481\nsamples = 802\nvalue = [479, 323]\nclass = Non_Recid", fillcolor="#f7d6bf"] ;
753 -> 901 ;
902 [label="super_dist_5JD <= 0.5\ngini = 0.485\nsamples = 764\nvalue = [448, 316]\nclass = Non_Recid", fillcolor="#f7dac5"] ;
901 -> 902 ;
903 [label="crime_subtype_Drug Possession <= 0.5\ngini = 0.472\nsamples = 479\nvalue = [296, 183]\nclass = Non_Recid", fillcolor="#f5cfb3"] ;
902 -> 903 ;
904 [label="crime_subtype_Forgery/Fraud <= 0.5\ngini = 0.464\nsamples = 437\nvalue = [277, 160]\nclass = Non_Recid", fillcolor="#f4caab"] ;
903 -> 904 ;
905 [label="crime_subtype_Other Violent <= 0.5\ngini = 0.45\nsamples = 365\nvalue = [240, 125]\nclass = Non_Recid", fillcolor="#f3c3a0"] ;
904 -> 905 ;
906 [label="super_dist_2JD <= 0.5\ngini = 0.446\nsamples = 360\nvalue = [239, 121]\nclass = Non_Recid", fillcolor="#f2c19d"] ;
905 -> 906 ;
907 [label="target_pop_Yes <= 0.5\ngini = 0.455\nsamples = 271\nvalue = [176, 95]\nclass = Non_Recid", fillcolor="#f3c5a4"] ;
906 -> 907 ;
908 [label="crime_type_Property <= 0.5\ngini = 0.398\nsamples = 51\nvalue = [37, 14]\nclass = Non_Recid", fillcolor="#efb184"] ;
907 -> 908 ;
909 [label="(...)", fillcolor="#C0C0C0"] ;
908 -> 909 ;
916 [label="(...)", fillcolor="#C0C0C0"] ;
908 -> 916 ;
919 [label="crime_subtype_Traffic <= 0.5\ngini = 0.465\nsamples = 220\nvalue = [139, 81]\nclass = Non_Recid", fillcolor="#f4caac"] ;
907 -> 919 ;
920 [label="(...)", fillcolor="#C0C0C0"] ;
919 -> 920 ;
973 [label="(...)", fillcolor="#C0C0C0"] ;
919 -> 973 ;
974 [label="sex_Female <= 0.5\ngini = 0.414\nsamples = 89\nvalue = [63, 26]\nclass = Non_Recid", fillcolor="#f0b58b"] ;
906 -> 974 ;
975 [label="crime_subtype_Trafficking <= 0.5\ngini = 0.427\nsamples = 84\nvalue = [58, 26]\nclass = Non_Recid", fillcolor="#f1b992"] ;
974 -> 975 ;
976 [label="(...)", fillcolor="#C0C0C0"] ;
975 -> 976 ;
991 [label="(...)", fillcolor="#C0C0C0"] ;
975 -> 991 ;
996 [label="gini = 0.0\nsamples = 5\nvalue = [5, 0]\nclass = Non_Recid", fillcolor="#e58139"] ;
974 -> 996 ;
997 [label="gini = 0.32\nsamples = 5\nvalue = [1, 4]\nclass = Yes_Recid", fillcolor="#6ab6ec"] ;
905 -> 997 ;
998 [label="sex_Female <= 0.5\ngini = 0.5\nsamples = 72\nvalue = [37, 35]\nclass = Non_Recid", fillcolor="#fef8f4"] ;
904 -> 998 ;
999 [label="super_dist_4JD <= 0.5\ngini = 0.492\nsamples = 39\nvalue = [17, 22]\nclass = Yes_Recid", fillcolor="#d2e9f9"] ;
998 -> 999 ;
1000 [label="super_dist_2JD <= 0.5\ngini = 0.498\nsamples = 34\nvalue = [16, 18]\nclass = Yes_Recid", fillcolor="#e9f4fc"] ;
999 -> 1000 ;
1001 [label="race_ethnicity_Black <= 0.5\ngini = 0.5\nsamples = 26\nvalue = [13, 13]\nclass = Non_Recid", fillcolor="#ffffff"] ;
1000 -> 1001 ;
1002 [label="(...)", fillcolor="#C0C0C0"] ;
1001 -> 1002 ;
1007 [label="(...)", fillcolor="#C0C0C0"] ;
1001 -> 1007 ;
1008 [label="gini = 0.469\nsamples = 8\nvalue = [3, 5]\nclass = Yes_Recid", fillcolor="#b0d8f5"] ;
1000 -> 1008 ;
1009 [label="gini = 0.32\nsamples = 5\nvalue = [1, 4]\nclass = Yes_Recid", fillcolor="#6ab6ec"] ;
999 -> 1009 ;
1010 [label="super_dist_2JD <= 0.5\ngini = 0.478\nsamples = 33\nvalue = [20, 13]\nclass = Non_Recid", fillcolor="#f6d3ba"] ;
998 -> 1010 ;
1011 [label="super_dist_1JD <= 0.5\ngini = 0.461\nsamples = 25\nvalue = [16, 9]\nclass = Non_Recid", fillcolor="#f4c8a8"] ;
1010 -> 1011 ;
1012 [label="super_dist_3JD <= 0.5\ngini = 0.408\nsamples = 14\nvalue = [10, 4]\nclass = Non_Recid", fillcolor="#efb388"] ;
1011 -> 1012 ;
1013 [label="(...)", fillcolor="#C0C0C0"] ;
1012 -> 1013 ;
1014 [label="(...)", fillcolor="#C0C0C0"] ;
1012 -> 1014 ;
1015 [label="gini = 0.496\nsamples = 11\nvalue = [6, 5]\nclass = Non_Recid", fillcolor="#fbeade"] ;
1011 -> 1015 ;
1016 [label="gini = 0.5\nsamples = 8\nvalue = [4, 4]\nclass = Non_Recid", fillcolor="#ffffff"] ;
1010 -> 1016 ;
1017 [label="super_dist_2JD <= 0.5\ngini = 0.495\nsamples = 42\nvalue = [19, 23]\nclass = Yes_Recid", fillcolor="#ddeefa"] ;
903 -> 1017 ;
1018 [label="super_dist_8JD <= 0.5\ngini = 0.498\nsamples = 32\nvalue = [17, 15]\nclass = Non_Recid", fillcolor="#fcf0e8"] ;
1017 -> 1018 ;
1019 [label="super_dist_3JD <= 0.5\ngini = 0.496\nsamples = 22\nvalue = [10, 12]\nclass = Yes_Recid", fillcolor="#deeffb"] ;
1018 -> 1019 ;
1020 [label="race_ethnicity_White <= 0.5\ngini = 0.444\nsamples = 15\nvalue = [5, 10]\nclass = Yes_Recid", fillcolor="#9ccef2"] ;
1019 -> 1020 ;
1021 [label="gini = 0.5\nsamples = 6\nvalue = [3, 3]\nclass = Non_Recid", fillcolor="#ffffff"] ;
1020 -> 1021 ;
1022 [label="gini = 0.346\nsamples = 9\nvalue = [2, 7]\nclass = Yes_Recid", fillcolor="#72b9ec"] ;
1020 -> 1022 ;
1023 [label="gini = 0.408\nsamples = 7\nvalue = [5, 2]\nclass = Non_Recid", fillcolor="#efb388"] ;
1019 -> 1023 ;
1024 [label="gini = 0.42\nsamples = 10\nvalue = [7, 3]\nclass = Non_Recid", fillcolor="#f0b78e"] ;
1018 -> 1024 ;
1025 [label="gini = 0.32\nsamples = 10\nvalue = [2, 8]\nclass = Yes_Recid", fillcolor="#6ab6ec"] ;
1017 -> 1025 ;
1026 [label="crime_subtype_Other Public Order <= 0.5\ngini = 0.498\nsamples = 285\nvalue = [152, 133]\nclass = Non_Recid", fillcolor="#fcefe6"] ;
902 -> 1026 ;
1027 [label="crime_subtype_Traffic <= 0.5\ngini = 0.499\nsamples = 278\nvalue = [146, 132]\nclass = Non_Recid", fillcolor="#fdf3ec"] ;
1026 -> 1027 ;
1028 [label="crime_subtype_Vandalism <= 0.5\ngini = 0.499\nsamples = 269\nvalue = [139, 130]\nclass = Non_Recid", fillcolor="#fdf7f2"] ;
1027 -> 1028 ;
1029 [label="race_ethnicity_Black <= 0.5\ngini = 0.5\nsamples = 256\nvalue = [130, 126]\nclass = Non_Recid", fillcolor="#fefbf9"] ;
1028 -> 1029 ;
1030 [label="age_number <= -0.885\ngini = 0.5\nsamples = 206\nvalue = [101, 105]\nclass = Yes_Recid", fillcolor="#f7fbfe"] ;
1029 -> 1030 ;
1031 [label="target_pop_No <= 0.5\ngini = 0.493\nsamples = 61\nvalue = [34, 27]\nclass = Non_Recid", fillcolor="#fae5d6"] ;
1030 -> 1031 ;
1032 [label="(...)", fillcolor="#C0C0C0"] ;
1031 -> 1032 ;
1043 [label="(...)", fillcolor="#C0C0C0"] ;
1031 -> 1043 ;
1046 [label="crime_subtype_Theft <= 0.5\ngini = 0.497\nsamples = 145\nvalue = [67, 78]\nclass = Yes_Recid", fillcolor="#e3f1fb"] ;
1030 -> 1046 ;
1047 [label="(...)", fillcolor="#C0C0C0"] ;
1046 -> 1047 ;
1066 [label="(...)", fillcolor="#C0C0C0"] ;
1046 -> 1066 ;
1069 [label="crime_subtype_Drug Possession <= 0.5\ngini = 0.487\nsamples = 50\nvalue = [29, 21]\nclass = Non_Recid", fillcolor="#f8dcc8"] ;
1029 -> 1069 ;
1070 [label="age_enc <= -0.94\ngini = 0.474\nsamples = 44\nvalue = [27, 17]\nclass = Non_Recid", fillcolor="#f5d0b6"] ;
1069 -> 1070 ;
1071 [label="(...)", fillcolor="#C0C0C0"] ;
1070 -> 1071 ;
1074 [label="(...)", fillcolor="#C0C0C0"] ;
1070 -> 1074 ;
1081 [label="gini = 0.444\nsamples = 6\nvalue = [2, 4]\nclass = Yes_Recid", fillcolor="#9ccef2"] ;
1069 -> 1081 ;
1082 [label="gini = 0.426\nsamples = 13\nvalue = [9, 4]\nclass = Non_Recid", fillcolor="#f1b991"] ;
1028 -> 1082 ;
1083 [label="gini = 0.346\nsamples = 9\nvalue = [7, 2]\nclass = Non_Recid", fillcolor="#eca572"] ;
1027 -> 1083 ;
1084 [label="gini = 0.245\nsamples = 7\nvalue = [6, 1]\nclass = Non_Recid", fillcolor="#e9965a"] ;
1026 -> 1084 ;
1085 [label="crime_type_Property <= 0.5\ngini = 0.301\nsamples = 38\nvalue = [31, 7]\nclass = Non_Recid", fillcolor="#eb9d66"] ;
901 -> 1085 ;
1086 [label="target_pop_Yes <= 0.5\ngini = 0.403\nsamples = 25\nvalue = [18, 7]\nclass = Non_Recid", fillcolor="#efb286"] ;
1085 -> 1086 ;
1087 [label="gini = 0.0\nsamples = 5\nvalue = [5, 0]\nclass = Non_Recid", fillcolor="#e58139"] ;
1086 -> 1087 ;
1088 [label="crime_type_Public Order <= 0.5\ngini = 0.455\nsamples = 20\nvalue = [13, 7]\nclass = Non_Recid", fillcolor="#f3c5a4"] ;
1086 -> 1088 ;
1089 [label="gini = 0.32\nsamples = 10\nvalue = [8, 2]\nclass = Non_Recid", fillcolor="#eca06a"] ;
1088 -> 1089 ;
1090 [label="super_dist_5JD <= 0.5\ngini = 0.5\nsamples = 10\nvalue = [5, 5]\nclass = Non_Recid", fillcolor="#ffffff"] ;
1088 -> 1090 ;
1091 [label="gini = 0.48\nsamples = 5\nvalue = [3, 2]\nclass = Non_Recid", fillcolor="#f6d5bd"] ;
1090 -> 1091 ;
1092 [label="gini = 0.48\nsamples = 5\nvalue = [2, 3]\nclass = Yes_Recid", fillcolor="#bddef6"] ;
1090 -> 1092 ;
1093 [label="gini = 0.0\nsamples = 13\nvalue = [13, 0]\nclass = Non_Recid", fillcolor="#e58139"] ;
1085 -> 1093 ;
1094 [label="release_type_Parole Granted <= 0.5\ngini = 0.391\nsamples = 15\nvalue = [4, 11]\nclass = Yes_Recid", fillcolor="#81c1ee"] ;
752 -> 1094 ;
1095 [label="race_ethnicity_White <= 0.5\ngini = 0.32\nsamples = 10\nvalue = [2, 8]\nclass = Yes_Recid", fillcolor="#6ab6ec"] ;
1094 -> 1095 ;
1096 [label="gini = 0.32\nsamples = 5\nvalue = [1, 4]\nclass = Yes_Recid", fillcolor="#6ab6ec"] ;
1095 -> 1096 ;
1097 [label="gini = 0.32\nsamples = 5\nvalue = [1, 4]\nclass = Yes_Recid", fillcolor="#6ab6ec"] ;
1095 -> 1097 ;
1098 [label="gini = 0.48\nsamples = 5\nvalue = [2, 3]\nclass = Yes_Recid", fillcolor="#bddef6"] ;
1094 -> 1098 ;
1099 [label="crime_subtype_Other Drug <= 0.5\ngini = 0.436\nsamples = 134\nvalue = [91, 43]\nclass = Non_Recid", fillcolor="#f1bd97"] ;
751 -> 1099 ;
1100 [label="race_ethnicity_American Native <= 0.5\ngini = 0.424\nsamples = 128\nvalue = [89, 39]\nclass = Non_Recid", fillcolor="#f0b890"] ;
1099 -> 1100 ;
1101 [label="crime_subtype_Forgery/Fraud <= 0.5\ngini = 0.409\nsamples = 122\nvalue = [87, 35]\nclass = Non_Recid", fillcolor="#efb489"] ;
1100 -> 1101 ;
1102 [label="release_type_Parole Granted <= 0.5\ngini = 0.384\nsamples = 112\nvalue = [83, 29]\nclass = Non_Recid", fillcolor="#eead7e"] ;
1101 -> 1102 ;
1103 [label="crime_subtype_OWI <= 0.5\ngini = 0.32\nsamples = 70\nvalue = [56, 14]\nclass = Non_Recid", fillcolor="#eca06a"] ;
1102 -> 1103 ;
1104 [label="crime_subtype_Drug Possession <= 0.5\ngini = 0.395\nsamples = 48\nvalue = [35, 13]\nclass = Non_Recid", fillcolor="#efb083"] ;
1103 -> 1104 ;
1105 [label="crime_type_Property <= 0.5\ngini = 0.427\nsamples = 42\nvalue = [29, 13]\nclass = Non_Recid", fillcolor="#f1b992"] ;
1104 -> 1105 ;
1106 [label="race_ethnicity_White <= 0.5\ngini = 0.464\nsamples = 30\nvalue = [19, 11]\nclass = Non_Recid", fillcolor="#f4caac"] ;
1105 -> 1106 ;
1107 [label="gini = 0.48\nsamples = 10\nvalue = [6, 4]\nclass = Non_Recid", fillcolor="#f6d5bd"] ;
1106 -> 1107 ;
1108 [label="crime_subtype_Trafficking <= 0.5\ngini = 0.455\nsamples = 20\nvalue = [13, 7]\nclass = Non_Recid", fillcolor="#f3c5a4"] ;
1106 -> 1108 ;
1109 [label="crime_type_Public Order <= 0.5\ngini = 0.375\nsamples = 12\nvalue = [9, 3]\nclass = Non_Recid", fillcolor="#eeab7b"] ;
1108 -> 1109 ;
1110 [label="(...)", fillcolor="#C0C0C0"] ;
1109 -> 1110 ;
1111 [label="(...)", fillcolor="#C0C0C0"] ;
1109 -> 1111 ;
1112 [label="gini = 0.5\nsamples = 8\nvalue = [4, 4]\nclass = Non_Recid", fillcolor="#ffffff"] ;
1108 -> 1112 ;
1113 [label="gini = 0.278\nsamples = 12\nvalue = [10, 2]\nclass = Non_Recid", fillcolor="#ea9a61"] ;
1105 -> 1113 ;
1114 [label="gini = 0.0\nsamples = 6\nvalue = [6, 0]\nclass = Non_Recid", fillcolor="#e58139"] ;
1104 -> 1114 ;
1115 [label="race_ethnicity_White <= 0.5\ngini = 0.087\nsamples = 22\nvalue = [21, 1]\nclass = Non_Recid", fillcolor="#e68742"] ;
1103 -> 1115 ;
1116 [label="gini = 0.0\nsamples = 6\nvalue = [6, 0]\nclass = Non_Recid", fillcolor="#e58139"] ;
1115 -> 1116 ;
1117 [label="gini = 0.117\nsamples = 16\nvalue = [15, 1]\nclass = Non_Recid", fillcolor="#e78946"] ;
1115 -> 1117 ;
